svm_type c_svc
kernel_type rbf
gamma 0.00048828125
nr_class 2
total_sv 728
rho -1.5788942436703184
label 1 -1
nr_sv 377 351
SV
451.15568794632185 1:-0.37435189 2:-0.36910502 3:-0.13999408 4:0.46195591 5:0.65930901 6:-0.56164509 7:-0.55941048 8:-0.55022183 9:-0.27776385 10:-0.20628379 11:-0.351911 12:-0.46223822 13:-0.52321911 14:-0.35802212 15:-0.23502569 16:-0.41704689 17:-0.41910604 18:-0.40145289 19:-0.31539729 20:-0.20866918 21:-0.31022701 22:-0.33059307 23:-0.21788444 24:-0.043275462 25:0.02567095 26:-0.78132062 27:-0.718224 28:-0.74106915 29:-0.65587676 30:-0.65761628 31:-0.51982351 32:-0.45912533 33:-0.48960853 34:-0.38276511 35:-0.34285614 36:-0.65678939 37:-0.75939905 38:-0.63559482 39:-0.14709958 40:0.053078872 41:-0.58993924 42:-0.57442892 43:-0.55590178 44:-0.46162035 45:-0.41680224 46:-0.70893313 47:-0.53500033 48:-0.69381595 49:-0.4347045 50:-0.33320608 51:-0.36489103 52:-0.29862877 53:-0.36438336 54:-0.10220396 55:0.079542162 56:-0.79309917 57:-0.75389848 58:-0.36466304 59:0.092065012 60:0.19287028 61:0.030452267 62:-0.02033969 63:-0.0033325621 64:0.18953583 65:0.32777165 66:0.037144281 67:-0.040253353 68:-0.049781654 69:0.09712678 70:0.19900217 71:-0.22217267 72:-0.28677626 73:-0.25654666 74:-0.0077702024 75:0.15145863 76:-0.69294098 77:-0.51026274 78:-0.66229277 79:-0.51212218 80:-0.43244949 81:-0.56363215 82:-0.50335209 83:-0.37989407 84:-0.083641047 85:0.0056505962 86:-0.58983619 87:-0.61556059 88:-0.60073349 89:-0.34519839 90:-0.27018716 91:-0.5989492 92:-0.63922938 93:-0.62967697 94:-0.45248491 95:-0.35863015 96:-0.61438896 97:-0.66388945 98:-0.72605901 99:-0.61390235 100:-0.55794798 101:-0.64802848 102:-0.62425604 103:-0.60417323 104:-0.42239192 105:-0.31039176 106:-0.59342169 107:-0.61839029 108:-0.61679421 109:-0.37665676 110:-0.38541369 111:-0.60702026 112:-0.6187324 113:-0.67352277 114:-0.53469963 115:-0.46955428 116:-0.38464775 117:-0.31648548 118:-0.25444934 119:-0.058637301 120:0.10774571 121:-0.45371232 122:-0.36745939 123:-0.3819878 124:-0.31768853 125:-0.30708493 126:-0.63947972 127:-0.48206398 128:-0.009378272 129:0.42068077 130:0.27856469 131:-0.69498643 132:-0.57291554 133:-0.45976989 134:-0.29023227 135:-0.25321905 136:-0.56014673 137:-0.45738383 138:-0.51962399 139:-0.27885757 140:-0.13789497 141:-0.40465563 142:-0.42193704 143:-0.42370251 144:-0.10738728 145:0.027367402 146:-0.06222563 147:-0.12321237 148:0.042376318 149:0.42986003 150:0.7975431 151:-0.55060477 152:-0.5738366 153:-0.60751053 154:-0.38941031 155:-0.26798243 156:-0.57919488 157:-0.46639814 158:-0.44249671 159:-0.23885431 160:-0.18405085 
495.56164803558477 1:1.7382057 2:1.7979832 3:1.1899753 4:0.39868777 5:0.17258597 6:0.66381526 7:0.64675084 8:0.2252457 9:-0.11663257 10:-0.18962631 11:0.37813604 12:0.33209377 13:-0.064553684 14:-0.26354402 15:-0.30170438 16:-0.2807121 17:-0.087893162 18:-0.29375694 19:-0.39530705 20:-0.52622342 21:0.94689825 22:0.82144483 23:0.36435713 24:0.011659289 25:-0.18495495 26:-0.53283916 27:-0.15180725 28:-0.41633402 29:-0.46475144 30:-0.64696797 31:0.69240132 32:0.65211243 33:0.21237899 34:-0.06112823 35:-0.29451179 36:1.3779605 37:1.6346555 38:0.56789305 39:-0.079033918 40:-0.55063331 41:0.13770671 42:0.3103878 43:-0.13345975 44:-0.20914939 45:-0.40676693 46:1.3288994 47:1.4322175 48:0.50224175 49:0.1495335 50:-0.13786394 51:0.27383745 52:0.71915617 53:-0.089835285 54:-0.25416322 55:-0.45500476 56:1.2203582 57:0.98198115 58:0.31726425 59:-0.06563658 60:-0.24551351 61:0.21408824 62:0.47198134 63:-0.0081251039 64:-0.10977741 65:-0.34416808 66:-0.1811635 67:-0.029684637 68:-0.25000317 69:-0.26276907 70:-0.39773707 71:0.98079869 72:0.710893 73:0.31394799 74:-0.022430625 75:-0.17028331 76:0.41703574 77:0.82788898 78:-0.033221136 79:-0.21880132 80:-0.46226843 81:0.77416173 82:0.60977661 83:0.16173353 84:-0.18403507 85:-0.24845818 86:2.409636 87:2.1658573 88:1.6532668 89:0.85070733 90:0.45232758 91:1.5490318 92:1.2471132 93:0.70544025 94:0.2414967 95:0.012887474 96:1.5432053 97:1.2879937 98:0.74461099 99:0.32475615 100:0.11301124 101:0.03996666 102:0.056120487 103:-0.33786473 104:-0.41458161 105:-0.47795265 106:2.9891354 107:2.6779335 108:2.0712158 109:1.5075074 110:0.87827445 111:0.75945881 112:0.69462637 113:0.21912212 114:0.0012474712 115:-0.16977468 116:0.84399722 117:0.64927683 118:0.097827186 119:0.025243917 120:-0.17619896 121:1.3874819 122:1.0717781 123:0.47860516 124:0.28855353 125:0.059757695 126:0.80322493 127:0.58693187 128:0.10419633 129:-0.16334033 130:-0.3044982 131:0.89819669 132:1.0249053 133:0.46128386 134:0.17219826 135:-0.16879359 136:0.31283706 137:0.75472358 138:0.039368742 139:-0.21599341 140:-0.44118846 141:1.2277249 142:1.4269752 143:0.77980288 144:0.22908735 145:-0.072580453 146:0.36453003 147:0.50465973 148:-0.095199177 149:-0.31150988 150:-0.59229899 151:1.6229786 152:1.7051416 153:1.1378355 154:0.59886359 155:0.11679154 156:-0.030558131 157:0.21370113 158:-0.032221825 159:-0.145289 160:-0.42789286 
496.53808693802426 1:-0.6719262 2:-0.82081741 3:-0.76780558 4:-0.45072874 5:-0.4147523 6:-0.29305886 7:-0.45576337 8:-0.43382851 9:-0.37430989 10:-0.35454001 11:-0.49464288 12:-0.54417791 13:-0.49580598 14:-0.42355519 15:-0.40535178 16:-0.40291002 17:-0.38919791 18:-0.35593305 19:-0.39848909 20:-0.45656606 21:-0.59325106 22:-0.63725343 23:-0.61788608 24:-0.52497829 25:-0.52669538 26:-0.56721755 27:-0.64775444 28:-0.55024686 29:-0.62122612 30:-0.63069478 31:-0.51500007 32:-0.57897805 33:-0.57253033 34:-0.64384435 35:-0.64768436 36:-0.28768532 37:-0.30490127 38:-0.21827361 39:-0.60112979 40:-0.63462767 41:-0.49324261 42:-0.57601152 43:-0.59842805 44:-0.59020869 45:-0.53386184 46:-0.65409221 47:-0.77988153 48:-0.73432891 49:-0.72248252 50:-0.71848264 51:-0.25301182 52:-0.5548 53:-0.49410288 54:-0.63674712 55:-0.63510607 56:-0.7252109 57:-0.87013042 58:-0.89774019 59:-0.87066153 60:-0.79240471 61:-0.55893329 62:-0.63918518 63:-0.61307196 64:-0.53102659 65:-0.48249839 66:-0.31408073 67:-0.38958808 68:-0.35020415 69:-0.37965808 70:-0.36245061 71:-0.57218991 72:-0.59659431 73:-0.61545404 74:-0.56020813 75:-0.52271922 76:-0.15628019 77:-0.48518039 78:-0.50380023 79:-0.59372053 80:-0.60253258 81:-0.63548255 82:-0.65587703 83:-0.65142033 84:-0.60934754 85:-0.55189427 86:-0.54738404 87:-0.66093642 88:-0.69076034 89:-0.71093224 90:-0.62332674 91:-0.64381098 92:-0.70161105 93:-0.61971181 94:-0.55420488 95:-0.49893877 96:-0.54679922 97:-0.64264986 98:-0.68222263 99:-0.71013275 100:-0.66837098 101:-0.48756331 102:-0.53482608 103:-0.52711216 104:-0.57578801 105:-0.52366654 106:-0.59377449 107:-0.67415589 108:-0.76371312 109:-0.90174079 110:-0.81394438 111:-0.42228024 112:-0.54172086 113:-0.60179672 114:-0.55868708 115:-0.47827779 116:-0.28546242 117:-0.39444155 118:-0.38844113 119:-0.45727084 120:-0.4684405 121:-0.064413732 122:-0.27283239 123:-0.27425343 124:-0.36213934 125:-0.36450452 126:-0.62769764 127:-0.66801073 128:-0.62968101 129:-0.61663161 130:-0.57296635 131:-0.26348083 132:-0.43169135 133:-0.47497658 134:-0.56530698 135:-0.56967201 136:-0.86326539 137:-0.91736728 138:-0.80863786 139:-0.72592656 140:-0.66920855 141:-0.60232308 142:-0.61915461 143:-0.55909329 144:-0.55924188 145:-0.51701293 146:0.052318625 147:-0.36485217 148:-0.59649384 149:-0.71423005 150:-0.71294394 151:-0.49920746 152:-0.592879 153:-0.52122136 154:-0.5731437 155:-0.53215912 156:0.17546603 157:-0.20780702 158:-0.25214156 159:-0.37553916 160:-0.36152081 
512 1:-0.57271582 2:-0.46443713 3:-0.43474718 4:-0.60889283 5:-0.64046484 6:-0.50930379 7:-0.51322986 8:-0.52046575 9:-0.46061827 10:-0.43279457 11:0.95973743 12:0.96469298 13:1.0828217 14:0.80533982 15:0.69894076 16:-0.44879311 17:-0.4334405 18:-0.41565199 19:-0.44439525 20:-0.48454002 21:-0.48615945 22:-0.44006506 23:-0.43749709 24:-0.48881295 25:-0.51405043 26:-0.74550964 27:-0.63029126 28:-0.57160475 29:-0.65029749 30:-0.70483163 31:-0.42209506 32:-0.32463132 33:-0.34345214 34:-0.44533283 35:-0.46237718 36:-0.3922189 37:-0.3699416 38:-0.34544055 39:-0.41398348 40:-0.45915311 41:-0.49052004 42:-0.43891316 43:-0.39214873 44:-0.41351078 45:-0.4355802 46:0.89661722 47:1.0657376 48:1.3163087 49:1.3028304 50:1.1799974 51:-0.50243753 52:-0.3465911 53:-0.25668277 54:-0.34254325 55:-0.48661813 56:0.16932761 57:0.2696963 58:0.41205061 59:0.46025902 60:0.37798897 61:-0.40492423 62:-0.37114964 63:-0.32296806 64:-0.34259235 65:-0.41005324 66:-0.42525639 67:-0.37341966 68:-0.32905753 69:-0.33887818 70:-0.36986836 71:-0.57804741 72:-0.55677793 73:-0.50033756 74:-0.52888051 75:-0.55265902 76:-0.50944673 77:-0.26747214 78:-0.25244937 79:-0.32821166 80:-0.48898601 81:0.34562598 82:0.48284403 83:0.60604079 84:0.3817806 85:0.2836826 86:-0.12352056 87:-0.084173078 88:-0.0028724847 89:-0.081253565 90:-0.080717238 91:-0.44393777 92:-0.45806341 93:-0.4023289 94:-0.34053274 95:-0.28722442 96:-0.5122138 97:-0.5217115 98:-0.50939618 99:-0.51247455 100:-0.51269596 101:-0.5727418 102:-0.48616079 103:-0.49243717 104:-0.52562602 105:-0.54247442 106:-0.059804337 107:0.029415256 108:0.11790041 109:0.21277441 110:0.14931633 111:-0.22415951 112:0.061223409 113:0.21406913 114:0.12112406 115:-0.086078153 116:0.42464913 117:0.45626762 118:0.49498601 119:0.61341232 120:0.67797857 121:-0.16105656 122:-0.1811898 123:-0.10673659 124:-0.1869195 125:-0.2575249 126:0.12929921 127:0.15849201 128:0.27265949 129:0.16622138 130:0.10537474 131:-0.27793241 132:-0.17499156 133:-0.083293403 134:-0.13468593 135:-0.23427422 136:0.77800031 137:0.83101217 138:0.95895038 139:0.91034561 140:0.79089948 141:0.38389486 142:0.33013135 143:0.46794885 144:0.4119798 145:0.43140225 146:0.14527254 147:0.1868312 148:0.41594626 149:0.21736097 150:0.11361715 151:-0.02472946 152:-0.048096697 153:0.0019024896 154:0.01581958 155:0.05279507 156:-0.37634925 157:-0.428673 158:-0.35331342 159:-0.38852834 160:-0.36635413 
12.62897296589035 1:0.97160468 2:0.63243202 3:0.1459859 4:-0.32560946 5:-0.27195469 6:2.1915162 7:1.6833324 8:0.90846872 9:0.29799772 10:0.29705372 11:-0.36396062 12:-0.47814941 13:-0.56789437 14:-0.50755433 15:-0.42074991 16:0.094051113 17:-0.11619776 18:-0.26292756 19:-0.36678952 20:-0.35633547 21:0.041124762 22:-0.15698579 23:-0.3673375 24:-0.40305054 25:-0.32669689 26:-0.37070937 27:-0.38291578 28:-0.40994268 29:-0.38776531 30:-0.18334864 31:-0.40100978 32:-0.49477786 33:-0.68533901 34:-0.71572803 35:-0.64421616 36:2.6826514 37:2.0753551 38:1.1813428 39:0.58093646 40:0.49979509 41:0.79431625 42:0.43088903 43:0.09244233 44:-0.12647028 45:-0.059807862 46:-0.26267768 47:-0.47907885 48:-0.78163997 49:-0.75420454 50:-0.60107415 51:-0.025650081 52:-0.31336073 53:-0.5217774 54:-0.56011997 55:-0.42076247 56:1.7014107 57:1.1205915 58:0.29854362 59:0.1444666 60:0.26768004 61:-0.44794494 62:-0.47952617 63:-0.57184693 64:-0.42943167 65:-0.3151308 66:1.3259834 67:0.79701329 68:0.31760772 69:0.0058320212 70:0.025101144 71:0.64416031 72:0.31817958 73:0.17447357 74:0.11556474 75:0.23090718 76:-0.83915431 77:-0.78743143 78:-0.80754933 79:-0.81244219 80:-0.77006703 81:-0.363928 82:-0.52188305 83:-0.66249616 84:-0.57678973 85:-0.44057824 86:0.16195723 87:-0.06112412 88:-0.37866161 89:-0.45702014 90:-0.31807118 91:0.72979989 92:0.35936664 93:0.028602898 94:-0.16425612 95:-0.10204596 96:2.2375944 97:1.8088034 98:1.0982294 99:0.60096674 100:0.6043211 101:1.4709932 102:0.74960603 103:0.23793282 104:0.060122596 105:0.19796202 106:0.54126034 107:0.23760305 108:-0.17585801 109:-0.40123951 110:-0.2515785 111:-0.081551078 112:-0.2176587 113:-0.46551997 114:-0.44917971 115:-0.29286282 116:-0.55509094 117:-0.60462241 118:-0.59124104 119:-0.62978019 120:-0.59718689 121:-0.051003812 122:-0.24814024 123:-0.33372895 124:-0.37491158 125:-0.35065787 126:-0.10278395 127:-0.30475656 128:-0.42717959 129:-0.41801856 130:-0.34403502 131:0.96412064 132:0.45825269 133:0.19613096 134:0.12244966 135:0.32806708 136:0.13534939 137:-0.21469599 138:-0.42396109 139:-0.51685726 140:-0.40430212 141:0.52901971 142:0.2053927 143:-0.13172543 144:-0.26856857 145:-0.16492163 146:-0.89158699 147:-0.79131551 148:-0.77469779 149:-0.78284376 150:-0.79650991 151:2.2175295 152:1.6342213 153:1.1194654 154:0.67286188 155:0.74250949 156:-0.28171924 157:-0.4411603 158:-0.50790041 159:-0.50006027 160:-0.46085204 
512 1:-0.45578382 2:-0.18921669 3:-0.12174813 4:-0.25187807 5:-0.23244343 6:-0.27550313 7:-0.21736955 8:-0.044900466 9:-0.071721521 10:-0.07122705 11:-0.22390053 12:-0.11964741 13:-0.0637536 14:-0.086538961 15:-0.048918019 16:4.1264666 17:3.3351034 18:2.5261509 19:1.5939492 20:1.1532528 21:-0.53745155 22:-0.40636923 23:-0.35562492 24:-0.22951865 25:0.030628162 26:0.13960962 27:-0.074052432 28:-0.18710464 29:-0.40522656 30:-0.3825071 31:-0.6072026 32:-0.53153178 33:-0.29254182 34:-0.25596286 35:-0.10419354 36:-0.25155989 37:-0.33680247 38:-0.49885265 39:-0.58269956 40:-0.45394995 41:-0.32155938 42:-0.35900302 43:-0.39523948 44:-0.48019478 45:-0.50804151 46:-0.52597625 47:-0.63431551 48:-0.48790942 49:-0.58681601 50:-0.66036923 51:-0.73762994 52:-0.6299077 53:-0.33278361 54:-0.44200535 55:-0.50155941 56:0.84148823 57:0.72016718 58:0.42287705 59:-0.14325001 60:-0.3238507 61:-0.41180792 62:-0.44210869 63:-0.25826573 64:-0.38419618 65:-0.41372455 66:-0.040527929 67:-0.017045026 68:0.070633877 69:-0.07942175 70:-0.085292091 71:0.25641377 72:0.21847349 73:0.2277709 74:-0.068419952 75:-0.13988606 76:0.32807332 77:-0.0055948737 78:-0.11578114 79:-0.37928064 80:-0.47656978 81:-0.50695065 82:-0.38918754 83:-0.32183451 84:-0.29496748 85:-0.19333657 86:0.59279577 87:0.5412076 88:0.44035623 89:0.0084564999 90:-0.080478632 91:0.56412341 92:0.44683209 93:0.23716225 94:-0.13455914 95:-0.28304927 96:-0.27298965 97:-0.3011991 98:-0.34476309 99:-0.32845493 100:-0.34516724 101:-0.60384297 102:-0.51438434 103:-0.34767577 104:-0.33973635 105:-0.18758798 106:-0.087905467 107:-0.16127496 108:-0.29355474 109:-0.51977406 110:-0.50283981 111:1.6837496 112:1.6936561 113:1.3805543 114:0.54120152 115:0.29782795 116:-0.12218072 117:-0.21864315 118:-0.2682873 119:-0.4460456 120:-0.51239729 121:-0.45975861 122:-0.4045848 123:-0.31429218 124:-0.36023575 125:-0.39820209 126:1.0141357 127:0.79633462 128:0.53145793 129:-0.1126142 130:-0.3116912 131:0.34922224 132:0.16048478 133:0.095880669 134:-0.15962294 135:-0.28015076 136:-0.85711198 137:-0.66199263 138:-0.55193181 139:-0.49433822 140:-0.5381907 141:-0.10617185 142:-0.21565356 143:-0.23769372 144:-0.39886914 145:-0.46986411 146:1.5520602 147:1.0219913 148:0.59285745 149:-0.070190083 150:-0.27013132 151:-0.24598781 152:-0.23058617 153:-0.17385605 154:-0.26235919 155:-0.26611221 156:-0.16544766 157:-0.040255519 158:0.19022239 159:0.0033955738 160:-0.023706718 
512 1:-0.44583791 2:-0.35151737 3:-0.23926052 4:-0.13074206 5:-0.19312645 6:-0.48409254 7:-0.51826654 8:-0.5081223 9:-0.38657738 10:-0.32858399 11:-0.1090573 12:-0.091228179 13:0.0099749523 14:0.041600754 15:-0.062761829 16:-0.30276488 17:-0.21286196 18:-0.15571968 19:-0.092247668 20:-0.14856222 21:-0.44430517 22:-0.44662784 23:-0.39997788 24:-0.3523873 25:-0.36193465 26:-0.38326143 27:-0.14058637 28:-0.058844011 29:0.058594182 30:-0.013685663 31:-0.42210948 32:-0.27665331 33:-0.18999557 34:-0.078699832 35:-0.12989081 36:-0.47551835 37:-0.11919203 38:0.084526622 39:0.089464411 40:-0.187453 41:0.35045791 42:0.58777378 43:0.96389283 44:1.0796531 45:0.85142138 46:-0.65992561 47:-0.5462543 48:-0.41090474 49:-0.20451649 50:-0.18019272 51:-0.46255502 52:-0.37123119 53:-0.25626284 54:-0.046790386 55:-0.022606088 56:-0.8152329 57:-0.75196246 58:-0.63498858 59:-0.627006 60:-0.66287751 61:-0.39251955 62:-0.43629968 63:-0.41771195 64:-0.31060129 65:-0.31354006 66:-0.19274227 67:-0.019962566 68:0.07877465 69:0.11569197 70:-0.011797681 71:-0.44018415 72:-0.37372398 73:-0.32297835 74:-0.22208461 75:-0.24133141 76:-0.11581949 77:0.17672132 78:0.3433017 79:0.6193788 80:0.57632573 81:0.54508027 82:1.0245948 83:1.6663577 84:1.5831093 85:1.1184135 86:-0.45877355 87:-0.27030499 88:-0.20419202 89:-0.10243523 90:-0.18200218 91:-0.33439682 92:-0.33132085 93:-0.19796121 94:-0.082689989 95:-0.1538183 96:-0.30383751 97:-0.19824461 98:-0.055482225 99:0.12083023 100:0.062125016 101:-0.5991246 102:-0.54875537 103:-0.48860145 104:-0.41712404 105:-0.36412892 106:-0.32521692 107:0.11240125 108:0.24472731 109:0.49941027 110:0.26846743 111:-0.39828781 112:-0.38103313 113:-0.28475981 114:-0.16016245 115:-0.1904933 116:-0.44148117 117:-0.29213799 118:-0.20540617 119:-0.13312676 120:-0.15576503 121:-0.44571156 122:-0.39154129 123:-0.31264431 124:-0.34507617 125:-0.38828544 126:-0.39380007 127:-0.32237646 128:-0.26312717 129:-0.18040321 130:-0.23603365 131:-0.36128926 132:-0.28237689 133:-0.19670334 134:-0.10946628 135:-0.18584453 136:-0.60655418 137:-0.45428554 138:-0.31060586 139:-0.242351 140:-0.28047479 141:-0.57751601 142:-0.57679058 143:-0.60747157 144:-0.46407124 145:-0.43215033 146:-0.043941879 147:0.088635863 148:0.23907019 149:0.44602971 150:0.23331338 151:-0.62139714 152:-0.56958331 153:-0.59744784 154:-0.45185443 155:-0.40050691 156:0.14058921 157:0.23022708 158:0.3388951 159:0.41413543 160:0.25136204 
512 1:0.97981066 2:0.60956134 3:0.1638282 4:-0.11513056 5:-0.30236452 6:0.26590397 7:0.042433206 8:-0.21179751 9:-0.22805357 10:-0.27541073 11:-0.11742031 12:-0.21904953 13:-0.40531422 14:-0.36275139 15:-0.35753306 16:-0.37338075 17:-0.30618584 18:-0.36029415 19:-0.3064212 20:-0.2999874 21:-0.43055291 22:-0.35124505 23:-0.31012546 24:-0.21056896 25:-0.17152449 26:-0.29162961 27:-0.38965514 28:-0.51035865 29:-0.54465663 30:-0.50526396 31:-0.48596621 32:-0.44305066 33:-0.58228005 34:-0.59282164 35:-0.55720898 36:0.48889385 37:0.33467939 38:0.15160175 39:-0.018868436 40:0.038496501 41:6.0199759 42:6.5561642 43:6.4399113 44:6.2860236 45:5.1649688 46:-0.48344813 47:-0.49925608 48:-0.84356281 49:-0.77294872 50:-0.68807256 51:-0.75216592 52:-0.47247254 53:-0.66604026 54:-0.73704516 55:-0.69369248 56:0.57180608 57:0.32845076 58:0.15142133 59:-0.042776499 60:-0.10189036 61:0.1154801 62:-0.012913184 63:-0.072847306 64:-0.21470843 65:-0.22467876 66:0.38202943 67:0.16324314 68:0.062961809 69:-0.086852007 70:-0.12344308 71:-0.29764928 72:-0.32198076 73:-0.31094204 74:-0.34441069 75:-0.32153147 76:-0.41916854 77:-0.40546188 78:-0.54445441 79:-0.56547962 80:-0.53865525 81:0.045834577 82:-0.17196207 83:-0.41988905 84:-0.42315106 85:-0.43561219 86:-0.32690761 87:-0.22420728 88:-0.30035391 89:-0.22499224 90:-0.19739501 91:0.22975028 92:-0.0084154636 93:-0.23153529 94:-0.22083851 95:-0.24845279 96:0.43463113 97:0.17796836 98:-0.096761871 99:-0.045636948 100:-0.16058344 101:0.79498804 102:0.34006487 103:0.17656488 104:0.13786958 105:0.20691731 106:0.40545229 107:0.098947322 108:-0.080111091 109:0.094701154 110:0.03550934 111:-0.56288287 112:-0.55805777 113:-0.60538697 114:-0.5095034 115:-0.39485611 116:-0.73376213 117:-0.63822743 118:-0.64261473 119:-0.6630542 120:-0.66378234 121:-0.15710467 122:-0.20117547 123:-0.26075501 124:-0.16915807 125:-0.045085926 126:-0.3168477 127:-0.40821344 128:-0.35814493 129:-0.14253236 130:-0.11857762 131:-0.30993561 132:-0.28955115 133:-0.21285435 134:0.03723066 135:-0.010199646 136:0.28057036 137:0.034284245 138:-0.30202591 139:-0.353018 140:-0.33158387 141:-0.51712628 142:-0.47054192 143:-0.72347861 144:-0.53970159 145:-0.45435839 146:2.3058649 147:1.3600204 148:0.98285288 149:0.89293493 150:0.72927903 151:-0.12511275 152:-0.3242201 153:-0.51273245 154:-0.47457922 155:-0.42669188 156:0.52767845 157:0.20713013 158:0.089466904 159:-0.055286237 160:-0.086425753 
512 1:0.54146116 2:0.18455095 3:-0.16375704 4:-0.55258525 5:-0.65999868 6:0.048427952 7:-0.15511238 8:-0.37460371 9:-0.41466251 10:-0.43187833 11:-0.23683729 12:-0.36224901 13:-0.51846659 14:-0.47278424 15:-0.46497475 16:-0.44177124 17:-0.42298577 18:-0.4426072 19:-0.50341196 20:-0.58395987 21:-0.52489649 22:-0.51038231 23:-0.58373413 24:-0.55968928 25:-0.54459899 26:-0.49932631 27:-0.56326764 28:-0.65309142 29:-0.66460751 30:-0.66476139 31:-0.58041401 32:-0.52309189 33:-0.69062111 34:-0.66794766 35:-0.69124331 36:-0.01337933 37:-0.23056207 38:-0.48728632 39:-0.77669939 40:-0.9465685 41:4.1194197 42:3.9577139 43:3.7022162 44:2.6117451 45:1.500471 46:-0.64324921 47:-0.59475784 48:-0.95495264 49:-0.87501598 50:-0.80588832 51:-0.80281747 52:-0.52311453 53:-0.75322795 54:-0.77062408 55:-0.76617216 56:0.11033699 57:-0.085709391 58:-0.19510045 59:-0.4145267 60:-0.6026811 61:-0.12233872 62:-0.17503678 63:-0.29815313 64:-0.34972935 65:-0.4126257 66:0.090201432 67:-0.069706682 68:-0.16319152 69:-0.26163825 70:-0.33845598 71:-0.43851439 72:-0.4532932 73:-0.46566165 74:-0.45837236 75:-0.46759247 76:-0.61561445 77:-0.52453418 78:-0.69011217 79:-0.7016673 80:-0.73092165 81:-0.17353865 82:-0.37765795 83:-0.55701601 84:-0.60086494 85:-0.58809541 86:-0.47403324 87:-0.47010952 88:-0.60846756 89:-0.62537335 90:-0.55877665 91:-0.010506261 92:-0.2185769 93:-0.39782044 94:-0.35618871 95:-0.39313456 96:0.15818562 97:-0.078493415 98:-0.30075541 99:-0.39264499 100:-0.48988442 101:0.39605792 102:-0.017187889 103:-0.2112527 104:-0.3762536 105:-0.42831286 106:0.12790284 107:-0.13986999 108:-0.35732004 109:-0.54018984 110:-0.60122437 111:-0.62470881 112:-0.64564633 113:-0.71691842 114:-0.60248264 115:-0.55131089 116:-0.74586201 117:-0.63412893 118:-0.64491634 119:-0.66593141 120:-0.69786339 121:-0.25727536 122:-0.2795402 123:-0.36588052 124:-0.37635431 125:-0.44070526 126:-0.43630846 127:-0.55472448 128:-0.6615024 129:-0.62939867 130:-0.55854873 131:-0.47905605 132:-0.4739255 133:-0.54845856 134:-0.56800388 135:-0.61733534 136:-0.052609171 137:-0.21103221 138:-0.51122241 139:-0.56745976 140:-0.5716806 141:-0.58194957 142:-0.5606936 143:-0.80042015 144:-0.66507909 145:-0.57648612 146:1.3284657 147:0.58984714 148:0.2499787 149:-0.071339012 150:-0.35302117 151:-0.29067229 152:-0.48014219 153:-0.64111467 154:-0.62037422 155:-0.55209702 156:0.16400708 157:-0.081932333 158:-0.14047012 159:-0.25280596 160:-0.31335475 
512 1:-0.35871026 2:-0.31110627 3:-0.16872811 4:0.012622471 5:0.049281479 6:-0.1625098 7:-0.030728807 8:0.0045259472 9:0.10905393 10:0.12288739 11:0.91179649 12:1.3713222 13:1.6053514 14:1.389389 15:1.3178035 16:0.2603814 17:0.40436527 18:0.47423483 19:0.78993198 20:1.1734849 21:-0.0062490577 22:0.22521173 23:0.33810062 24:0.29672528 25:0.34619876 26:1.0855787 27:1.2882294 28:1.4326836 29:1.5750023 30:1.7643942 31:-0.24132449 32:-0.10548801 33:-0.082900547 34:0.01570108 35:0.12260585 36:0.012126254 37:0.48880997 38:0.64351105 39:0.68146029 40:0.93531158 41:-0.059479419 42:0.11570741 43:0.21500788 44:0.28691961 45:0.40746467 46:0.69492204 47:1.348515 48:1.7441481 49:2.0330295 50:2.0951077 51:1.4468212 52:2.0520459 53:2.1646509 54:2.646086 55:2.8592902 56:0.22365938 57:0.63188218 58:0.8881423 59:1.0549447 60:1.2072463 61:0.56987113 62:0.94947667 63:1.108784 64:0.75443952 65:0.78955001 66:0.24710759 67:0.47450717 68:0.5873389 69:0.50346149 70:0.54971681 71:0.17883529 72:0.40294919 73:0.53565332 74:0.60667885 75:0.70346012 76:1.9456016 77:2.1589405 78:2.2919457 79:2.7963484 80:3.2824259 81:0.0070084573 82:0.32558187 83:0.50495745 84:0.56586995 85:0.56817608 86:-0.24197719 87:-0.13979972 88:-0.061005766 89:0.028349876 90:0.20682941 91:0.3149398 92:0.62997013 93:0.85687499 94:0.86691363 95:0.95229999 96:0.62118796 97:1.2907526 98:1.6794234 99:1.9034702 100:1.7104872 101:0.92738084 102:1.2540942 103:1.2965567 104:1.0041463 105:0.86372236 106:0.22425157 107:0.59372833 108:0.89543852 109:1.6604724 110:1.8388808 111:-0.63360263 112:-0.66174026 113:-0.65351112 114:-0.57133569 115:-0.49437654 116:1.3092474 117:1.7212954 118:1.7479421 119:2.3011874 120:2.8580663 121:-0.080698365 122:-0.0093872952 123:0.00068456035 124:-0.067908452 125:-0.10827527 126:0.23217541 127:0.50397738 128:0.63928891 129:0.66806832 130:0.72414338 131:0.85796966 132:1.1311521 133:1.1539949 134:1.5153053 135:1.9264712 136:-0.26817099 137:-0.074622047 138:-0.02826287 139:0.082230461 140:0.24542305 141:0.21540782 142:0.5715594 143:0.82247184 144:0.83314681 145:0.90694925 146:0.75958905 147:1.0127258 148:1.0967855 149:1.4847426 150:2.0447637 151:0.44352923 152:0.87571544 153:1.1786366 154:1.3410945 155:1.4511996 156:-0.5220399 157:-0.38051591 158:-0.25074178 159:-0.31354796 160:-0.33339869 
133.44558644848843 1:-0.51591163 2:-0.34989584 3:-0.29350136 4:-0.49967276 5:-0.59599721 6:-0.49689129 7:-0.48998217 8:-0.48710249 9:-0.45254766 10:-0.41616288 11:1.4225301 12:1.4831782 13:1.378422 14:0.91151482 15:0.77295147 16:-0.44208089 17:-0.40974252 18:-0.38746051 19:-0.44150214 20:-0.47884186 21:-0.45826088 22:-0.42447241 23:-0.46500455 24:-0.47350524 25:-0.50619122 26:-0.72685961 27:-0.59642939 28:-0.57152496 29:-0.63526583 30:-0.69891618 31:-0.33679006 32:-0.28410335 33:-0.34291745 34:-0.44228381 35:-0.44199884 36:-0.24258507 37:-0.16693066 38:-0.1336537 39:-0.29387906 40:-0.37515744 41:-0.45305657 42:-0.39193565 43:-0.37284743 44:-0.37431699 45:-0.41200514 46:1.4958475 47:1.7441977 48:1.7211511 49:1.391679 50:1.2929826 51:-0.45382212 52:-0.25352136 53:-0.25028529 54:-0.24397394 55:-0.41499332 56:0.46579943 57:0.59629042 58:0.66449011 59:0.60265482 60:0.47796299 61:-0.33521496 62:-0.30272238 63:-0.29377638 64:-0.30755086 65:-0.38215501 66:-0.39759108 67:-0.33070987 68:-0.29248099 69:-0.30513535 70:-0.34581379 71:-0.57024984 72:-0.55104773 73:-0.4970434 74:-0.51669015 75:-0.5365516 76:-0.48337963 77:-0.28033975 78:-0.26243906 79:-0.27935502 80:-0.44310066 81:0.79249424 82:1.0213116 83:1.0683832 84:0.58283655 85:0.37463136 86:0.10187052 87:0.19748916 88:0.23409104 89:0.069878533 90:-0.017398496 91:-0.38780252 92:-0.36866279 93:-0.37363059 94:-0.32789008 95:-0.26821344 96:-0.48298725 97:-0.47591652 98:-0.47216416 99:-0.52626449 100:-0.49417869 101:-0.56605408 102:-0.50277596 103:-0.49265703 104:-0.53726665 105:-0.52842348 106:0.099158594 107:0.22097962 108:0.2492065 109:0.22013508 110:0.22888676 111:-0.15373074 112:0.23890556 113:0.40715003 114:0.25255617 115:0.0057785706 116:0.70853866 117:0.72037008 118:0.65344098 119:0.67423731 120:0.75965901 121:-0.017512166 122:-0.04458211 123:-0.030460715 124:-0.15333158 125:-0.20244669 126:0.38428591 127:0.43424576 128:0.38409339 129:0.21409892 130:0.15837899 131:-0.17286784 132:-0.085383216 133:-0.04546147 134:-0.1120382 135:-0.18476008 136:1.2108708 137:1.3151507 138:1.2262208 139:0.97938924 140:0.87346851 141:0.77302991 142:0.86694244 143:0.80204628 144:0.51994651 145:0.48376733 146:0.47284143 147:0.4359527 148:0.45988704 149:0.26252564 150:0.20145976 151:0.25204378 152:0.29225385 153:0.24595052 154:0.11652048 155:0.10069124 156:-0.29451369 157:-0.32944834 158:-0.35375087 159:-0.37088455 160:-0.36295198 
512 1:0.098311567 2:0.12879495 3:0.059444709 4:-0.20259037 5:-0.39664016 6:-0.31340896 7:-0.4766746 8:-0.6136949 9:-0.58312364 10:-0.47880991 11:-0.12088451 12:-0.18530329 13:-0.2884289 14:-0.30929823 15:-0.3303218 16:0.018186878 17:-0.078487431 18:-0.14290094 19:-0.16272645 20:-0.24153387 21:-0.23892166 22:-0.22666286 23:-0.25087796 24:-0.34383555 25:-0.41443054 26:0.32283794 27:0.2122109 28:0.14712975 29:-0.024811068 30:-0.25101382 31:-0.18299619 32:-0.2415742 33:-0.26036313 34:-0.40036229 35:-0.46535135 36:1.8285934 37:1.7615842 38:1.307636 39:0.73097139 40:0.1062683 41:-0.27482954 42:-0.39734765 43:-0.44252623 44:-0.46881979 45:-0.45011284 46:1.0172404 47:0.47636315 48:0.0080891109 49:-0.2922062 50:-0.19832246 51:-0.16329078 52:-0.44544355 53:-0.50703687 54:-0.57216712 55:-0.54122751 56:1.6440186 57:1.2410563 58:0.73855213 59:0.45682715 60:0.13398997 61:-0.17916005 62:-0.3740171 63:-0.49259218 64:-0.41972239 65:-0.39945521 66:-0.41912436 67:-0.5203869 68:-0.58122767 69:-0.48590493 70:-0.43180031 71:-0.52522017 72:-0.61015437 73:-0.67699194 74:-0.58689137 75:-0.52903057 76:-0.2668074 77:-0.43201633 78:-0.46198987 79:-0.53358355 80:-0.5553745 81:-0.085810455 82:-0.034570138 83:-0.06444837 84:-0.16693437 85:-0.32740431 86:-0.22861755 87:-0.40432904 88:-0.59363368 89:-0.57720521 90:-0.46449346 91:0.43124203 92:0.24007938 93:0.06378328 94:-0.069854331 95:-0.14718875 96:-0.18319303 97:-0.28071848 98:-0.35156451 99:-0.3666794 100:-0.39069179 101:-0.19535814 102:-0.27658961 103:-0.29014541 104:-0.36559949 105:-0.36267141 106:0.25936044 107:0.13217685 108:-0.03060357 109:-0.14860216 110:-0.29420164 111:-0.51350696 112:-0.57454934 113:-0.58437613 114:-0.54809555 115:-0.47640041 116:1.6093201 117:0.83446225 118:0.37884538 119:0.18566295 120:0.19347035 121:-0.24559009 122:-0.3774649 123:-0.37144946 124:-0.41114039 125:-0.37326892 126:-0.21290367 127:-0.36150817 128:-0.40061299 129:-0.4444119 130:-0.46355769 131:0.063436415 132:-0.12899494 133:-0.27475358 134:-0.3300853 135:-0.40168696 136:1.4014075 137:0.76087987 138:0.24768492 139:-0.049523983 140:-0.091657717 141:-0.1849718 142:-0.26371771 143:-0.29257511 144:-0.33661586 145:-0.3833088 146:-0.37137965 147:-0.45830409 148:-0.4667302 149:-0.49669124 150:-0.66669027 151:-0.098626129 152:-0.089746539 153:-0.1113035 154:-0.15573182 155:-0.30543866 156:0.73454453 157:0.29324255 158:-0.062560044 159:-0.16740826 160:-0.19990968 
512 1:-0.6041545 2:-0.29910876 3:-0.69553688 4:-0.6264937 5:-0.37905912 6:-0.1690495 7:0.12546001 8:0.22573833 9:0.25083308 10:0.30544475 11:-0.29255101 12:-0.089890716 13:-0.18200172 14:-0.1057449 15:-0.054429743 16:-0.42288994 17:-0.27286823 18:-0.29866245 19:-0.26851083 20:-0.21826949 21:-0.36572977 22:-0.34576591 23:-0.5007039 24:-0.38000379 25:-0.25674589 26:0.51630038 27:1.0094615 28:1.1812233 29:1.4004982 30:1.658114 31:-0.46936895 32:-0.19164284 33:-0.4396523 34:-0.3613129 35:-0.24892035 36:-0.65164488 37:-0.76111099 38:-1.044071 39:-0.76753714 40:-0.60231206 41:-0.49795743 42:-0.3131377 43:-0.55211014 44:-0.48036614 45:-0.48632602 46:-0.086609863 47:0.40262205 48:-0.2518197 49:-0.071318172 50:-0.10459396 51:-0.44487793 52:0.37381984 53:-0.52533202 54:-0.39328735 55:-0.34301427 56:-0.81965788 57:-0.36963323 58:-0.63320856 59:-0.53752302 60:-0.55829696 61:-0.40797045 62:0.40466663 63:-0.30631231 64:-0.17726651 65:-0.12449529 66:-0.51521005 67:-0.27646961 68:-0.50465314 69:-0.39070423 70:-0.32917781 71:-0.34747215 72:-0.11232847 73:-0.095716266 74:0.024522502 75:0.12708343 76:-0.44096965 77:0.19608409 78:-0.40321195 79:-0.30403938 80:-0.26518212 81:-0.39901795 82:-0.35434087 83:-0.55933021 84:-0.41909366 85:-0.29058361 86:-0.40475114 87:-0.22350486 88:-0.37315512 89:-0.17392267 90:-0.0031206208 91:-0.56077073 92:-0.29763888 93:-0.58876064 94:-0.38939569 95:-0.44499666 96:-0.41822684 97:-0.16150706 98:-0.14044626 99:0.094194087 100:0.32261745 101:-0.6914427 102:-0.41373539 103:-0.68372994 104:-0.63965625 105:-0.57453062 106:-0.66731635 107:-0.45365845 108:-0.80202826 109:-0.79160489 110:-0.57321147 111:-0.19858093 112:-0.0470494 113:-0.19614999 114:-0.073898484 115:0.086663135 116:-0.486185 117:-0.27796038 118:-0.2826874 119:-0.19465085 120:-0.058256428 121:-0.4033828 122:-0.10197414 123:-0.26036591 124:-0.20002597 125:-0.17897804 126:-0.3009447 127:-0.1415798 128:-0.0066120792 129:0.10034261 130:0.25414122 131:-0.60702351 132:-0.37355395 133:-0.49368156 134:-0.49358067 135:-0.53783932 136:-0.73223003 137:-0.2964354 138:-0.64624026 139:-0.4474396 140:-0.41264925 141:-0.56590038 142:0.058154932 143:-0.52281165 144:-0.30189198 145:-0.27514225 146:-0.74793275 147:-0.2802328 148:-0.63181523 149:-0.63148873 150:-0.62642171 151:-0.55866199 152:-0.20965567 153:-0.62645294 154:-0.45880923 155:-0.39840329 156:-0.21160524 157:-0.039786963 158:-0.18892178 159:-0.072009234 160:0.05030723 
512 1:1.8956067 2:1.7978789 3:1.2347131 4:0.10045295 5:-0.10741804 6:0.78611164 7:0.6293543 8:0.30974728 9:-0.18977162 10:-0.27649785 11:0.46778956 12:0.28485457 13:-0.0056663873 14:-0.31256894 15:-0.35228915 16:-0.23269414 17:-0.1342125 18:-0.26528373 19:-0.38387895 20:-0.50118841 21:0.95694559 22:0.89101796 23:0.32443158 24:-0.088505532 25:-0.25963625 26:-0.48432601 27:-0.16865355 28:-0.38075271 29:-0.47340909 30:-0.63044374 31:0.69038198 32:0.69103172 33:0.28616487 34:-0.092230644 35:-0.34255137 36:1.5687422 37:1.4526646 38:0.77595321 39:-0.21672093 40:-0.54728911 41:0.18315038 42:0.26625497 43:-0.11709279 44:-0.25888031 45:-0.4017242 46:1.2908644 47:1.3886841 48:0.50332266 49:-0.050867983 50:-0.26473736 51:0.34393157 52:0.55567288 53:-0.1054556 54:-0.34332994 55:-0.51711385 56:1.3177946 57:1.0075158 58:0.3098208 59:-0.073029221 60:-0.17090921 61:0.23496304 62:0.50099383 63:0.029523914 64:-0.12960854 65:-0.35834275 66:-0.16685969 67:-0.0034998078 68:-0.24068595 69:-0.26887158 70:-0.39746128 71:1.0409703 72:0.7287976 73:0.27996251 74:-0.17216661 75:-0.26864544 76:0.42046184 77:0.64513587 78:-0.067335448 79:-0.29927879 80:-0.52557994 81:0.83125834 82:0.6116569 83:0.12704619 84:-0.29801568 85:-0.33836633 86:2.5113217 87:2.2447999 88:1.586102 89:0.46771782 90:0.19482509 91:1.5799433 92:1.3766445 93:0.67241424 94:0.097521392 95:-0.096067625 96:1.5796037 97:1.3261368 98:0.63308006 99:0.020140939 100:-0.080270444 101:0.015501027 102:0.007255528 103:-0.31489266 104:-0.43828413 105:-0.46338781 106:3.1493448 107:2.8130845 108:2.03021 109:1.0665387 110:0.45252291 111:0.75665978 112:0.72961078 113:0.22074311 114:-0.11980534 115:-0.24981634 116:0.82401687 117:0.65571645 118:0.15031312 119:-0.063538746 120:-0.27070896 121:1.6123221 122:1.0733353 123:0.60614147 124:0.21738337 125:-0.059502767 126:0.86264783 127:0.65035836 128:0.14926708 129:-0.19732653 130:-0.26170187 131:1.3399919 132:1.1220427 133:0.7540693 134:0.23527943 135:-0.10488266 136:0.3582787 137:0.79900628 138:0.028808702 139:-0.24021265 140:-0.46612434 141:1.457406 142:1.4016865 143:0.9985181 144:0.11271343 145:-0.16378127 146:0.34216449 147:0.60522138 148:-0.022976769 149:-0.080361644 150:0.014984017 151:1.6826793 152:1.781707 153:1.415905 154:0.51917487 155:0.059887536 156:-0.026442909 157:0.18015905 158:-0.061293119 159:-0.19320054 160:-0.43288956 
512 1:-0.3969366 2:-0.041631165 3:-0.44017131 4:-0.32700665 5:-0.39259223 6:-0.48612877 7:-0.37020528 8:-0.59478401 9:-0.43969664 10:-0.37614037 11:-0.050522291 12:0.027977812 13:-0.10860853 14:-0.1138618 15:-0.13802792 16:-0.25553507 17:-0.13707875 18:-0.22547293 19:-0.17760348 20:-0.25347224 21:-0.42262507 22:-0.31484395 23:-0.50257219 24:-0.4233761 25:-0.4079184 26:-0.38965735 27:-0.17098273 28:-0.23842117 29:-0.19478523 30:-0.316234 31:-0.40733392 32:-0.29038231 33:-0.3432919 34:-0.29143282 35:-0.39028684 36:-0.38911376 37:0.042491782 38:-0.25691741 39:-0.24047696 40:-0.53325188 41:0.34148369 42:0.49557666 43:0.58681233 44:0.68079531 45:0.63677434 46:-0.77367811 47:-0.41320837 48:-0.66809447 49:-0.37585481 50:-0.41985805 51:-0.45001619 52:-0.2008738 53:-0.42820519 54:-0.25307983 55:-0.34602962 56:-0.7952271 57:-0.6029006 58:-0.70740208 59:-0.69090671 60:-0.75594063 61:-0.37765461 62:-0.16540297 63:-0.46592588 64:-0.37241365 65:-0.34124317 66:-0.13603899 67:0.027481538 68:-0.012124741 69:-0.029050189 70:-0.13641727 71:-0.51319688 72:-0.31463102 73:-0.43453126 74:-0.32185469 75:-0.37694468 76:-0.36777666 77:0.32032704 78:-0.00028570306 79:0.28079304 80:0.018738291 81:0.4723015 82:0.85947677 83:1.0270865 84:1.0495505 85:0.78616628 86:-0.47016871 87:-0.22484097 88:-0.33367617 89:-0.26252517 90:-0.38107992 91:-0.29471805 92:-0.17838458 93:-0.31026375 94:-0.20931128 95:-0.20467144 96:-0.24294305 97:-0.10459174 98:-0.19114858 99:-0.088971166 100:-0.12667566 101:-0.60066685 102:-0.40642982 103:-0.56283656 104:-0.51439402 105:-0.51840768 106:-0.40374642 107:-0.011989543 108:-0.018920977 109:0.079902717 110:-0.22874081 111:-0.36882448 112:-0.29160273 113:-0.39185365 114:-0.2965136 115:-0.25166948 116:-0.38878361 117:-0.20767988 118:-0.30106107 119:-0.26706628 120:-0.31470388 121:-0.42801018 122:-0.31168979 123:-0.36176743 124:-0.3642545 125:-0.41793918 126:-0.34095529 127:-0.26154919 128:-0.36190875 129:-0.29896696 130:-0.34118885 131:-0.29608849 132:-0.14770626 133:-0.28648877 134:-0.24736165 135:-0.27545427 136:-0.54289344 137:-0.056225527 138:-0.43868035 139:-0.3102771 140:-0.40676674 141:-0.57941495 142:-0.16797894 143:-0.66383507 144:-0.46990043 145:-0.45996798 146:0.086726085 147:0.46530592 148:0.087002604 149:0.12872254 150:0.0241896 151:-0.68030429 152:-0.35212816 153:-0.63049825 154:-0.49757061 155:-0.49113648 156:0.24032915 157:0.39797772 158:0.19296284 159:0.17658968 160:0.091747646 
512 1:0.29283335 2:0.3738264 3:0.42123854 4:0.31852076 5:-0.042630593 6:0.15630784 7:0.308799 8:0.41173292 9:0.11862664 10:-0.12031764 11:-0.13201011 12:-0.1595918 13:-0.21758292 14:-0.26398644 15:-0.31974443 16:-0.20591849 17:-0.17630317 18:-0.15542803 19:-0.21206648 20:-0.34110238 21:-0.22511924 22:-0.23750411 23:-0.28637834 24:-0.38640302 25:-0.43820923 26:0.66944166 27:0.36993682 28:0.024037286 29:-0.25319697 30:-0.32087636 31:-0.032629194 32:-0.085606793 33:-0.1790687 34:-0.37242239 35:-0.46723237 36:0.99656774 37:1.0051569 38:0.51661311 39:-0.19046902 40:-0.4527558 41:-0.13992136 42:-0.20379186 43:-0.29767621 44:-0.4222185 45:-0.43369646 46:-0.53900312 47:-0.63600877 48:-0.725511 49:-0.75430147 50:-0.71748737 51:-0.78193407 52:-0.90777058 53:-0.81902765 54:-0.8086513 55:-0.74186264 56:-0.50103153 57:-0.63436846 58:-0.69232914 59:-0.78929367 60:-0.76505662 61:-0.45466645 62:-0.57877543 63:-0.59160631 64:-0.51105556 65:-0.46613901 66:-0.55860122 67:-0.59606532 68:-0.59726934 69:-0.48771403 70:-0.43888628 71:-0.27670863 72:-0.31908174 73:-0.33949213 74:-0.41050735 75:-0.44415401 76:0.19609725 77:-0.012844805 78:-0.095635416 79:-0.27652605 80:-0.40486814 81:-0.46842931 82:-0.47478123 83:-0.33847417 84:-0.39101252 85:-0.40454103 86:-0.015127126 87:0.028919954 88:0.13883696 89:-0.085461842 90:-0.27718115 91:-0.42478702 92:-0.38677412 93:-0.33236 94:-0.34080595 95:-0.37260485 96:-0.58144557 97:-0.64336007 98:-0.71506332 99:-0.72130276 100:-0.66097532 101:-0.58077423 102:-0.59894043 103:-0.54988051 104:-0.5504965 105:-0.52074846 106:-0.66537499 107:-0.72907021 108:-0.83540933 109:-0.93607123 110:-0.85877701 111:-0.36178908 112:-0.33226237 113:-0.34067038 114:-0.36411864 115:-0.38872332 116:-0.5517543 117:-0.54093666 118:-0.49570418 119:-0.56756233 120:-0.60611924 121:0.70406857 122:0.46853209 123:0.24202178 124:0.056998398 125:-0.055241068 126:0.22990356 127:0.11867056 128:-0.14692935 129:-0.30510293 130:-0.35478787 131:-0.25317954 132:-0.13423724 133:-0.0046685216 134:-0.10515417 135:-0.34615916 136:-0.041944905 137:0.076305795 138:0.24871484 139:-0.0067509671 140:-0.26658247 141:-0.36134711 142:-0.41496457 143:-0.51439373 144:-0.46714923 145:-0.46920555 146:-0.63016341 147:-0.59944042 148:-0.47949645 149:-0.59193948 150:-0.65653699 151:-0.65920617 152:-0.75248112 153:-0.80968676 154:-0.70881863 155:-0.62122838 156:-0.50646492 157:-0.53424487 158:-0.44470931 159:-0.45290547 160:-0.43755444 
512 1:2.1640401 2:2.1482196 3:2.5032478 4:2.4476226 5:2.8266191 6:1.208735 7:0.92893653 8:0.80427487 9:0.633521 10:0.8641824 11:0.0040595692 12:-0.22686849 13:-0.26469896 14:-0.18781866 15:-0.082830338 16:1.1375412 17:0.74849112 18:0.5750759 19:0.64821007 20:1.2692368 21:0.51975459 22:0.27183503 23:0.012295774 24:0.046777992 25:0.32129042 26:1.7535414 27:0.76621148 28:0.53126642 29:0.45383917 30:0.9218574 31:2.9331536 32:2.087192 33:1.8167394 34:1.7164368 35:2.3305454 36:-0.23925815 37:0.03592815 38:0.27488588 39:-0.18143224 40:-0.28937253 41:0.17150756 42:-0.049424339 43:-0.14122294 44:-0.15961877 45:0.059839275 46:1.7803967 47:1.5960121 48:1.6230122 49:1.2283827 50:1.5624493 51:-0.51716746 52:-0.54485319 53:-0.59979874 54:-0.63973035 55:-0.52985027 56:-0.37549997 57:-0.58241539 58:-0.6019887 59:-0.57642024 60:-0.38184038 61:0.55702008 62:0.12592817 63:-0.005754127 64:-0.013606795 65:0.17240878 66:0.88068681 67:0.77089534 68:0.72307033 69:0.37847577 70:0.47171094 71:2.2410202 72:1.6596278 73:1.353549 74:1.1750812 75:1.5653197 76:-0.269618 77:-0.46046373 78:-0.56049688 79:-0.56037343 80:-0.38626962 81:2.2078681 82:1.9567303 83:1.9801321 84:1.4824604 85:1.7041415 86:2.2302963 87:1.7316723 88:1.767595 89:1.6973429 90:2.1893722 91:0.80800089 92:0.36420126 93:0.22147143 94:0.18970247 95:0.49131322 96:1.8097548 97:1.5873065 98:1.6085597 99:1.5554959 100:2.0601907 101:-0.034457433 102:-0.27834129 103:-0.30862544 104:-0.32216248 105:-0.10231655 106:1.6947244 107:1.2701726 108:1.2124642 109:1.5234859 110:2.4178062 111:-0.38594084 112:-0.55772344 113:-0.68177964 114:-0.55011148 115:-0.3331041 116:0.054101539 117:-0.0059077781 118:0.00091004828 119:-0.13236647 120:0.018301506 121:-0.14518481 122:-0.22278084 123:-0.16614851 124:-0.25048345 125:-0.16754613 126:0.91823583 127:0.37257233 128:0.11413989 129:0.12414369 130:0.43924984 131:0.26249616 132:-0.079587787 133:-0.23171856 134:-0.14834719 135:0.18284359 136:-0.14392599 137:-0.12597941 138:-0.18588378 139:-0.28788909 140:-0.15955893 141:0.698308 142:0.42863763 143:0.54494277 144:0.26975252 145:0.44808702 146:0.32847929 147:0.14082401 148:-0.0081257886 149:-0.064975439 150:0.22188169 151:0.44728646 152:0.27186102 153:0.17695637 154:0.15992054 155:0.40584823 156:0.017649796 157:-0.18878294 158:-0.18867212 159:-0.20614326 160:-0.066606412 
512 1:-0.58574176 2:-0.35654169 3:-0.67569659 4:-0.56640119 5:-0.39721704 6:-0.17545688 7:0.18177254 8:0.28284406 9:0.28635612 10:0.27527656 11:-0.29048783 12:-0.052494515 13:-0.11913305 14:-0.088476602 15:-0.072748665 16:-0.4210409 17:-0.2501764 18:-0.26030672 19:-0.25150401 20:-0.24171724 21:-0.35095301 22:-0.35268788 23:-0.47873424 24:-0.37717103 25:-0.27549191 26:0.68422545 27:1.1169781 28:1.3264206 29:1.4707828 30:1.60387 31:-0.45840596 32:-0.19551017 33:-0.47798828 34:-0.379403 35:-0.27329398 36:-0.5711544 37:-0.67873109 38:-0.86208583 39:-0.80593503 40:-0.53689337 41:-0.46728484 42:-0.3375277 43:-0.49174369 44:-0.48145278 45:-0.4865481 46:0.091117672 47:0.38402581 48:-0.1016002 49:-0.070192898 50:-0.13863432 51:-0.44796559 52:0.069912289 53:-0.50213437 54:-0.41361725 55:-0.36454536 56:-0.82815007 57:-0.49156964 58:-0.59391405 59:-0.49380513 60:-0.46397628 61:-0.41366447 62:0.094759572 63:-0.27173785 64:-0.18716605 65:-0.1430121 66:-0.49687973 67:-0.33532397 68:-0.49185417 69:-0.3987738 70:-0.34171051 71:-0.31859111 72:-0.089919414 73:-0.06336153 74:0.045959358 75:0.10041001 76:-0.35345534 77:0.064076309 78:-0.3423093 79:-0.31187868 80:-0.26276299 81:-0.34972801 82:-0.31264985 83:-0.49154456 84:-0.40911098 85:-0.31115213 86:-0.40024095 87:-0.22192583 88:-0.31934867 89:-0.15602672 90:-0.029484481 91:-0.52487411 92:-0.28562624 93:-0.51739405 94:-0.41380653 95:-0.4522879 96:-0.40152905 97:-0.15856431 98:-0.072122381 99:0.14685248 100:0.29134035 101:-0.68351672 102:-0.47373973 103:-0.66479314 104:-0.64818981 105:-0.59302462 106:-0.667384 107:-0.51831153 108:-0.76377501 109:-0.82180153 110:-0.64007564 111:-0.15352666 112:-0.0053354043 113:-0.1551427 114:-0.046066969 115:0.046330041 116:-0.43027633 117:-0.2051632 118:-0.25503707 119:-0.17565115 120:-0.07715854 121:-0.40132444 122:-0.11033385 123:-0.21184279 124:-0.20252334 125:-0.20332922 126:-0.24422124 127:-0.078578513 128:0.029455087 129:0.12817307 130:0.23437591 131:-0.57950968 132:-0.31627108 133:-0.47089607 134:-0.49503837 135:-0.56440015 136:-0.69727115 137:-0.2580526 138:-0.5521943 139:-0.47965399 140:-0.42733741 141:-0.56004026 142:0.033001508 143:-0.4196195 144:-0.32131157 145:-0.29084689 146:-0.68134565 147:-0.18913529 148:-0.612409 149:-0.59770533 150:-0.63201897 151:-0.50545665 152:-0.23237223 153:-0.55397473 154:-0.45394571 155:-0.41157358 156:-0.10000983 157:0.012644378 158:-0.11323011 159:-0.039272326 160:0.02571892 
512 1:-0.27494 2:-0.32705704 3:-0.2519889 4:-0.28254412 5:-0.431807 6:-0.3816538 7:-0.53047366 8:-0.63959509 9:-0.60930611 10:-0.50565527 11:-0.32599263 12:-0.40294893 13:-0.39588226 14:-0.34963516 15:-0.34964281 16:-0.14815153 17:-0.24863714 18:-0.2439517 19:-0.2635851 20:-0.33761648 21:-0.43877619 22:-0.47022878 23:-0.41132367 24:-0.37183531 25:-0.4205627 26:-0.2595248 27:-0.28428574 28:-0.1248083 29:-0.12121533 30:-0.25776617 31:-0.4136943 32:-0.51310209 33:-0.41448493 34:-0.45588397 35:-0.49184974 36:1.0576411 37:0.86005453 38:0.71386713 39:0.43722698 40:-0.050411732 41:-0.42759857 42:-0.52204501 43:-0.53393942 44:-0.50755046 45:-0.46260729 46:0.63697413 47:0.16197758 48:-0.20901416 49:-0.49497167 50:-0.40975283 51:-0.44386051 52:-0.68132403 53:-0.64521793 54:-0.63817365 55:-0.56766274 56:1.0528934 57:0.69752168 58:0.44188245 59:0.22411346 60:-0.026448945 61:-0.34155675 62:-0.53743502 63:-0.59058042 64:-0.47071178 65:-0.40886126 66:-0.45826031 67:-0.5544402 68:-0.59496289 69:-0.50370193 70:-0.43969506 71:-0.57082997 72:-0.65120143 73:-0.68761787 74:-0.60140266 75:-0.52115073 76:-0.56585405 77:-0.68247037 78:-0.5895358 79:-0.57064625 80:-0.57957787 81:-0.42185744 82:-0.41970491 83:-0.29365743 84:-0.22775837 85:-0.34594334 86:-0.32392027 87:-0.49720744 88:-0.65750641 89:-0.66800685 90:-0.54169925 91:0.14345447 92:-0.034130029 93:-0.12476524 94:-0.16143372 95:-0.19428232 96:-0.3887993 97:-0.48209451 98:-0.47426399 99:-0.45147126 100:-0.42562116 101:-0.43895626 102:-0.510112 103:-0.46673204 104:-0.39644549 105:-0.40320489 106:0.017234982 107:-0.13586159 108:-0.19159179 109:-0.3145438 110:-0.43278979 111:-0.61168494 112:-0.68112675 113:-0.65882171 114:-0.58718622 115:-0.48607275 116:1.0980986 117:0.55446156 118:0.18733352 119:0.011375855 120:0.00032118971 121:-0.32186692 122:-0.42892085 123:-0.37821644 124:-0.46535741 125:-0.43597083 126:-0.36791753 127:-0.49377595 128:-0.45129789 129:-0.49418241 130:-0.49267178 131:-0.16503015 132:-0.30558086 133:-0.36809952 134:-0.39111174 135:-0.44248715 136:0.93477992 137:0.40332387 138:0.03164703 139:-0.22515033 140:-0.25059029 141:-0.41423279 142:-0.50836191 143:-0.4453848 144:-0.37305273 145:-0.38076417 146:-0.7093576 147:-0.73666043 148:-0.58636273 149:-0.61422716 150:-0.65896721 151:-0.40718493 152:-0.44169795 153:-0.32757219 154:-0.21515837 155:-0.27409689 156:0.42012572 157:0.08147065 158:-0.18458661 159:-0.20390359 160:-0.18495435 
512 1:0.046907187 2:-0.00074674766 3:0.027737145 4:-0.16261612 5:-0.27184107 6:-0.26154495 7:-0.46747097 8:-0.53948093 9:-0.5607757 10:-0.45755013 11:-0.15307692 12:-0.23481643 13:-0.26977238 14:-0.2976459 15:-0.28907406 16:0.020637445 17:-0.12226701 18:-0.15068742 19:-0.15779564 20:-0.17721597 21:-0.27022195 22:-0.2880394 23:-0.26567804 24:-0.30578939 25:-0.30592206 26:0.22570246 27:0.098434704 28:0.11241424 29:-0.075030682 30:-0.20275702 31:-0.1626734 32:-0.26035764 33:-0.27077202 34:-0.32099191 35:-0.35798104 36:1.8649249 37:1.5977323 38:1.2228507 39:0.7746434 40:0.41341119 41:-0.24575169 42:-0.35976468 43:-0.35659926 44:-0.44204216 45:-0.37554606 46:1.2624307 47:0.49289312 48:0.086495174 49:-0.21556038 50:-0.092108396 51:-0.11217071 52:-0.43682834 53:-0.36968803 54:-0.5688056 55:-0.43656156 56:1.7849849 57:1.1612414 58:0.70250377 59:0.4878283 60:0.28390603 61:-0.1326872 62:-0.37846334 63:-0.39423123 64:-0.43484857 65:-0.37202447 66:-0.39007558 67:-0.52240916 68:-0.55279555 69:-0.47331409 70:-0.41232096 71:-0.52697908 72:-0.62240451 73:-0.64886364 74:-0.5713034 75:-0.5041008 76:-0.23811618 77:-0.49069498 78:-0.4031078 79:-0.54704329 80:-0.52663343 81:-0.10490656 82:-0.098811231 83:-0.042452944 84:-0.15295693 85:-0.28688623 86:-0.18532531 87:-0.41647436 88:-0.56288309 89:-0.54214797 90:-0.37511405 91:0.46608747 92:0.18330009 93:0.052064829 94:-0.076117991 95:-0.10218974 96:-0.14712688 97:-0.26734594 98:-0.22980674 99:-0.36640377 100:-0.3075676 101:-0.23300068 102:-0.30701671 103:-0.33427574 104:-0.28246609 105:-0.24857985 106:0.29906951 107:0.087939065 108:-0.032525426 109:-0.083695403 110:-0.019709292 111:-0.53753147 112:-0.59572304 113:-0.60775418 114:-0.54485632 115:-0.45260937 116:1.9217216 117:0.93885786 118:0.58617771 119:0.24050308 120:0.28428708 121:-0.20007842 122:-0.34906135 123:-0.32549054 124:-0.31255161 125:-0.16887603 126:-0.15720315 127:-0.34293673 128:-0.31464244 129:-0.38618095 130:-0.35313222 131:0.079940507 132:-0.17643394 133:-0.25556968 134:-0.31302063 135:-0.30331097 136:1.6261313 137:0.74872391 138:0.23994808 139:-0.0066617803 140:-0.0072290456 141:-0.14911667 142:-0.30980225 143:-0.26962265 144:-0.34985197 145:-0.3671482 146:-0.42948993 147:-0.52683662 148:-0.50964489 149:-0.52375431 150:-0.59596335 151:-0.15244095 152:-0.18545491 153:-0.14985259 154:-0.18569126 155:-0.24956482 156:0.83212982 157:0.28080134 158:-0.032750115 159:-0.14416707 160:-0.11439226 
512 1:-0.77276853 2:-0.87242342 3:-0.90486237 4:-0.69983886 5:-0.55061386 6:-0.15095931 7:-0.37158406 8:-0.41516697 9:-0.29275838 10:-0.20437704 11:-0.51663338 12:-0.57106913 13:-0.58245312 14:-0.49162816 15:-0.43495313 16:-0.20537727 17:-0.25877139 18:-0.21441343 19:-0.25816077 20:-0.19782547 21:-0.19132208 22:-0.40164631 23:-0.47350363 24:-0.41319751 25:-0.36946722 26:-0.73037297 27:-0.73137411 28:-0.77274956 29:-0.70902533 30:-0.67346305 31:-0.19379543 32:-0.4729078 33:-0.57911956 34:-0.50995925 35:-0.41503092 36:-0.096752212 37:-0.5928007 38:-0.68835968 39:-0.56187061 40:-0.3501397 41:0.16128788 42:-0.17538474 43:-0.27362907 44:-0.22734498 45:-0.12788631 46:-0.25389333 47:-0.35096344 48:-0.23289589 49:-0.37480682 50:-0.21032013 51:-0.3531328 52:-0.55097894 53:-0.48002341 54:-0.53939471 55:-0.51950564 56:-0.54131012 57:-0.64694181 58:-0.5539489 59:-0.6026167 60:-0.47248559 61:-0.031533553 62:-0.2067301 63:-0.1268574 64:-0.21987436 65:-0.20679168 66:-0.3562104 67:-0.48881865 68:-0.46511679 69:-0.40418629 70:-0.36857146 71:-0.62556207 72:-0.62981398 73:-0.60164636 74:-0.54318554 75:-0.5182769 76:-0.14032975 77:-0.35859259 78:-0.29435732 79:-0.37114339 80:-0.28174906 81:-0.6873408 82:-0.78584117 83:-0.8045362 84:-0.70955594 85:-0.62379733 86:-0.41933636 87:-0.45743857 88:-0.46033903 89:-0.485872 90:-0.29249328 91:-0.57386629 92:-0.56364806 93:-0.59539513 94:-0.49717414 95:-0.40781065 96:-0.28555242 97:-0.42607978 98:-0.49565896 99:-0.52784727 100:-0.42731796 101:-0.41739756 102:-0.55860995 103:-0.54383535 104:-0.54606396 105:-0.42862341 106:0.11691196 107:-0.22881691 108:-0.38806623 109:-0.35870486 110:-0.15051371 111:2.6035818 112:1.9361475 113:1.7756838 114:1.3936029 115:1.3020899 116:-0.71409739 117:-0.64471343 118:-0.58581601 119:-0.6289515 120:-0.61414547 121:-0.1857433 122:-0.27728181 123:-0.24553161 124:-0.24109816 125:-0.18930936 126:-0.14869776 127:-0.37489864 128:-0.41426568 129:-0.21580253 130:-0.17198288 131:0.75131785 132:0.11768215 133:-0.058198784 134:0.016665326 135:0.15421196 136:0.32691908 137:-0.22441016 138:-0.30731683 139:-0.2511965 140:-0.16261601 141:-0.28084791 142:-0.52478021 143:-0.61513068 144:-0.47045522 145:-0.35610714 146:-0.28438963 147:-0.58490276 148:-0.61448642 149:-0.61739711 150:-0.59214804 151:0.54316532 152:0.12054413 153:0.045841599 154:0.043318856 155:0.083719635 156:-0.3220581 157:-0.43823573 158:-0.42430279 159:-0.414735 160:-0.37257027 
512 1:-0.45399791 2:-0.29385205 3:-0.30021283 4:-0.049903175 5:-0.12550522 6:-0.47418802 7:-0.4331973 8:-0.51392769 9:-0.35240628 10:-0.2919341 11:-0.11790358 12:-0.059558981 13:-0.014105161 14:0.081104473 15:0.041816031 16:-0.30452521 17:-0.22894488 18:-0.16354108 19:-0.051021876 20:-0.069309323 21:-0.43842698 22:-0.39690152 23:-0.43328785 24:-0.31305139 25:-0.29934319 26:-0.4261513 27:-0.19004286 28:-0.11743141 29:-0.070696929 30:-0.25044954 31:-0.43908817 32:-0.34455545 33:-0.23228186 34:-0.15786455 35:-0.30873609 36:-0.50744454 37:-0.15969882 38:-0.088152863 39:-0.014432325 40:-0.28282484 41:0.37511282 42:0.45022957 43:0.99279146 44:1.2072593 45:1.1329447 46:-0.66598081 47:-0.4792744 48:-0.45033217 49:-0.29018791 50:-0.32940704 51:-0.48203475 52:-0.33436014 53:-0.29282234 54:-0.12497757 55:-0.23253681 56:-0.84277402 57:-0.70067378 58:-0.74574402 59:-0.70782014 60:-0.76877656 61:-0.40165455 62:-0.24524932 63:-0.46580417 64:-0.3068823 65:-0.27230555 66:-0.22343748 67:-0.070362573 68:-0.026142664 69:0.04477772 70:-0.058650333 71:-0.46311047 72:-0.33491459 73:-0.38816417 74:-0.32462273 75:-0.39098079 76:-0.16780285 77:0.18514391 78:0.24179413 79:0.33642088 80:0.059119672 81:0.59243681 82:0.83184478 83:1.6106703 84:1.6106677 85:1.2910897 86:-0.4729351 87:-0.24855216 88:-0.29104963 89:-0.22206804 90:-0.36365832 91:-0.34935878 92:-0.25189586 93:-0.23566239 94:-0.053451522 95:-0.060544756 96:-0.30672045 97:-0.25758377 98:-0.065102873 99:0.23278406 100:0.1626219 101:-0.61867367 102:-0.47221872 103:-0.51979296 104:-0.46298634 105:-0.478234 106:-0.34281007 107:-0.034097806 108:0.087364323 109:0.1761556 110:-0.20138703 111:-0.4041874 112:-0.36282661 113:-0.31186883 114:-0.12426373 115:-0.095566547 116:-0.4584384 117:-0.30579783 118:-0.23237754 119:-0.14465603 120:-0.16349174 121:-0.4447749 122:-0.36781218 123:-0.37145763 124:-0.33041649 125:-0.34783224 126:-0.41186004 127:-0.36960648 128:-0.2870766 129:-0.15725093 130:-0.20276643 131:-0.36307201 132:-0.26391453 133:-0.21760546 134:-0.074780352 135:-0.071491718 136:-0.61470777 137:-0.3429283 138:-0.36460575 139:-0.20269757 140:-0.25088038 141:-0.58601045 142:-0.36692248 143:-0.62901366 144:-0.43498869 145:-0.39688874 146:-0.061282272 147:0.18537938 148:0.17577203 149:0.50699312 150:0.45196842 151:-0.65835119 152:-0.45796333 153:-0.65147836 154:-0.52596202 155:-0.50937744 156:0.10780938 157:0.21043384 158:0.26911789 159:0.46623615 160:0.41271521 
512 1:-0.59891689 2:-0.54985311 3:-0.3300305 4:0.040183189 5:-0.085281806 6:-0.59864473 7:-0.51687244 8:-0.41427323 9:-0.33361263 10:-0.32336246 11:-0.4314145 12:-0.43451206 13:-0.29323265 14:-0.34673468 15:-0.36258636 16:-0.072796285 17:-0.098806725 18:-0.05303282 19:-0.11991209 20:0.0061343485 21:-0.42376854 22:-0.39294591 23:-0.24232429 24:-0.28152918 25:-0.24567887 26:-0.66133276 27:-0.51910722 28:-0.32445837 29:-0.43472911 30:-0.58450442 31:-0.62773545 32:-0.41545803 33:-0.22949445 34:-0.41630146 35:-0.56254026 36:0.071124087 37:0.11911238 38:0.33548138 39:-0.11158158 40:-0.040589125 41:-0.48611857 42:-0.39213052 43:-0.26983993 44:-0.4110223 45:-0.40643197 46:-0.024139846 47:0.27645509 48:0.78191601 49:0.19310703 50:0.057093276 51:0.39745134 52:0.52312239 53:0.74046005 54:0.36468437 55:0.32305915 56:-0.56405224 57:-0.52993479 58:-0.38255595 59:-0.5218236 60:-0.5780454 61:-0.5860376 62:-0.440118 63:-0.28235213 64:-0.37509596 65:-0.42392519 66:-0.45851041 67:-0.3954327 68:-0.31152167 69:-0.32521137 70:-0.29352865 71:-0.62476647 72:-0.50504954 73:-0.35295654 74:-0.44449928 75:-0.47393582 76:-0.24248651 77:-0.17116391 78:0.24554753 79:-0.21552797 80:-0.2469906 81:-0.58806189 82:-0.58804299 83:-0.51517508 84:-0.5337849 85:-0.48047593 86:-0.36518319 87:-0.3117126 88:-0.15634038 89:-0.28215233 90:-0.26817355 91:-0.42812513 92:-0.32245405 93:-0.13034326 94:-0.30906153 95:-0.29407713 96:-0.67747698 97:-0.60782096 98:-0.45700712 99:-0.57112272 100:-0.63533718 101:-0.19661779 102:-0.17192201 103:-0.04078435 104:-0.19739157 105:-0.23773112 106:-0.4445883 107:-0.37346036 108:-0.21237603 109:-0.41580525 110:-0.56005315 111:-0.65713471 112:-0.52815961 113:-0.35178806 114:-0.44835534 115:-0.51119663 116:-0.27819383 117:-0.16424906 118:-0.028845071 119:-0.2165443 120:-0.22654154 121:-0.52825106 122:-0.36339774 123:-0.22722452 124:-0.31575165 125:-0.44766391 126:-0.1122907 127:-0.023251024 128:0.099992131 129:-0.094701701 130:-0.14748316 131:-0.68569402 132:-0.49996499 133:-0.32527082 134:-0.48222699 135:-0.59774715 136:-0.28252292 137:-0.16451279 138:0.20799557 139:-0.23956391 140:-0.23401049 141:-0.69525982 142:-0.54159568 143:-0.3122491 144:-0.47708521 145:-0.5160647 146:-0.94632413 147:-0.66687026 148:-0.4987089 149:-0.68963119 150:-0.85589405 151:-0.71340176 152:-0.5828352 153:-0.41468422 154:-0.53541076 155:-0.59312702 156:-0.42890864 157:-0.24037389 158:-0.054482907 159:-0.24295756 160:-0.35366695 
512 1:1.5357612 2:1.0427594 3:0.1701619 4:-0.1622192 5:-0.27088854 6:3.0847773 7:2.1670374 8:0.96009497 9:0.29775374 10:0.21274456 11:-0.29875386 12:-0.36968783 13:-0.56024244 14:-0.48408664 15:-0.43882081 16:0.3139305 17:-0.0077825327 18:-0.26939813 19:-0.36944247 20:-0.38237726 21:0.24239723 22:-0.020417009 23:-0.40676804 24:-0.44603335 25:-0.4257813 26:-0.40864009 27:-0.39665967 28:-0.47638447 29:-0.53734244 30:-0.47486918 31:-0.27541951 32:-0.38987511 33:-0.63580283 34:-0.71577033 35:-0.66722385 36:3.8704084 37:2.8010036 38:1.0734717 39:0.6124649 40:0.12144065 41:1.2551544 42:0.69006445 43:0.11723749 44:-0.14315631 45:-0.15536258 46:-0.0033765719 47:-0.20637986 48:-0.73649764 49:-0.73715365 50:-0.65636381 51:0.25224576 52:-0.045744181 53:-0.45770164 54:-0.53941963 55:-0.52584418 56:2.5617171 57:1.5574912 58:0.35055422 59:0.045751433 60:0.075614595 61:-0.41346589 62:-0.35414144 63:-0.5141556 64:-0.3985873 65:-0.3845846 66:1.9190496 67:1.0935253 68:0.32658439 69:0.010620127 70:-0.028934908 71:0.96708252 72:0.48464809 73:0.093143753 74:-0.10136825 75:-0.091216066 76:-0.80155848 77:-0.54974408 78:-0.80845474 79:-0.7531137 80:-0.76951693 81:-0.21322768 82:-0.39902166 83:-0.63688118 84:-0.51314126 85:-0.45624736 86:0.44773048 87:0.11816568 88:-0.36853619 89:-0.42256407 90:-0.34998325 91:1.1860889 92:0.64621029 93:0.024450538 94:-0.178502 95:-0.16355567 96:3.1573757 97:2.3421926 98:1.1232394 99:0.61428392 100:0.46369261 101:2.161026 102:1.1286896 103:0.23522957 104:-0.017179934 105:-0.0013057977 106:0.94495301 107:0.5169914 108:-0.16884692 109:-0.41534057 110:-0.37071476 111:0.13402194 112:-0.11855606 113:-0.46326654 114:-0.47495937 115:-0.38281265 116:-0.48592947 117:-0.52304667 118:-0.59027259 119:-0.62195627 120:-0.6189645 121:0.10694758 122:-0.13383382 123:-0.35028306 124:-0.39099547 125:-0.40477998 126:0.081678228 127:-0.1834593 128:-0.46330789 129:-0.48995454 130:-0.47508135 131:1.4264975 132:0.64333638 133:0.14258466 134:-0.055542852 135:-0.049302194 136:0.50079074 137:0.061710248 138:-0.44366776 139:-0.53219714 140:-0.47364445 141:0.94597388 142:0.46792923 143:-0.12727063 144:-0.29272852 145:-0.24999204 146:-0.92268758 147:-0.71362249 148:-0.68120685 149:-0.74716105 150:-0.85653872 151:3.0967064 152:2.1515987 153:1.0534756 154:0.49459932 155:0.39296603 156:-0.18289443 157:-0.38481727 158:-0.52393437 159:-0.47808099 160:-0.47076062 
512 1:-0.51212068 2:-0.65793719 3:-0.45736596 4:-0.40949482 5:-0.5477105 6:-0.50248636 7:-0.54837709 8:-0.4798128 9:-0.27783521 10:-0.34741709 11:-0.42195296 12:-0.49338476 13:-0.4291205 14:-0.30884683 15:-0.33044148 16:-0.36529494 17:-0.46955145 18:-0.43645827 19:-0.39320898 20:-0.46789855 21:0.077931774 22:-0.26962602 23:-0.27804289 24:-0.227882 25:-0.21977653 26:-0.4933075 27:-0.69793175 28:-0.64539049 29:-0.45378401 30:-0.52567174 31:-0.17910411 32:-0.52829264 33:-0.54511046 34:-0.4059951 35:-0.41456398 36:-0.54243995 37:-1.009591 38:-1.0671199 39:-0.91592224 40:-0.91371308 41:-0.55482959 42:-0.64720545 43:-0.60373051 44:-0.46638945 45:-0.51912844 46:0.11770983 47:-0.48262605 48:-0.40988944 49:-0.20224315 50:-0.17819504 51:-0.15080072 52:-0.60459093 53:-0.38639933 54:-0.31676015 55:-0.36194941 56:-0.56213507 57:-0.85187857 58:-0.75173323 59:-0.5265996 60:-0.57540378 61:-0.54833298 62:-0.69041912 63:-0.60956508 64:-0.46042061 65:-0.48260305 66:-0.37221656 67:-0.50941314 68:-0.46210239 69:-0.3494895 70:-0.384043 71:-0.61425834 72:-0.66824142 73:-0.60931662 74:-0.51173417 75:-0.53879559 76:-0.50960082 77:-0.82013977 78:-0.72667007 79:-0.56040767 80:-0.59790901 81:-0.36023393 82:-0.60700715 83:-0.49467509 84:-0.45802337 85:-0.44094204 86:-0.54073968 87:-0.65254782 88:-0.62036396 89:-0.39964914 90:-0.49512797 91:-0.53396215 92:-0.68653548 93:-0.64309378 94:-0.33888488 95:-0.39208796 96:-0.63989454 97:-0.77467223 98:-0.75045547 99:-0.63456307 100:-0.64429815 101:-0.28123678 102:-0.4531737 103:-0.25041331 104:-0.19866478 105:-0.30193084 106:-0.35820193 107:-0.5851911 108:-0.62025767 109:-0.48518856 110:-0.49929529 111:-0.53570172 112:-0.63644087 113:-0.60486554 114:-0.33584411 115:-0.40193513 116:-0.6050131 117:-0.54391168 118:-0.40162268 119:-0.26208973 120:-0.38123311 121:-0.38622401 122:-0.37839449 123:-0.28203246 124:-0.14966919 125:-0.23125238 126:-0.42983722 127:-0.57300044 128:-0.48430968 129:-0.33450966 130:-0.38331384 131:-0.56784558 132:-0.5236669 133:-0.40527039 134:-0.29963823 135:-0.42414216 136:-0.85226379 137:-0.95919404 138:-0.79429966 139:-0.53744611 140:-0.56265151 141:-0.53905879 142:-0.6465745 143:-0.49162293 144:-0.30172841 145:-0.35950456 146:-0.84751613 147:-1.0218368 148:-0.94339762 149:-0.75256928 150:-0.85353742 151:-0.33355838 152:-0.62081424 153:-0.61698961 154:-0.43027017 155:-0.40866653 156:0.19232349 157:-0.2721859 158:-0.2898329 159:-0.097475827 160:-0.13780893 
512 1:-0.15618339 2:-0.2600545 3:-0.51951899 4:-0.64955077 5:-0.71106954 6:-0.28189442 7:-0.3325532 8:-0.48415451 9:-0.43990741 10:-0.45644054 11:-0.38496851 12:-0.42349294 13:-0.57486727 14:-0.49116475 15:-0.48129849 16:-0.44851755 17:-0.44658754 18:-0.4606897 19:-0.5200264 20:-0.62176294 21:-0.49282984 22:-0.51923862 23:-0.61219074 24:-0.58671805 25:-0.60236773 26:-0.61728324 27:-0.6493427 28:-0.70657409 29:-0.69414829 30:-0.69222447 31:-0.60845918 32:-0.53701324 33:-0.74673808 34:-0.6965217 35:-0.70941996 36:-0.37092307 37:-0.49828005 38:-0.61718538 39:-0.92953905 40:-1.07361 41:3.9588935 42:4.0855837 43:4.0334958 44:2.5494915 45:0.97948162 46:-0.84005403 47:-0.73212825 48:-1.0397764 49:-0.92789452 50:-0.82878825 51:-0.82274536 52:-0.73260221 53:-0.85610016 54:-0.84467891 55:-0.78745426 56:-0.2794837 57:-0.35077923 58:-0.41306472 59:-0.57140165 60:-0.69293045 61:-0.27507132 62:-0.33484491 63:-0.46119554 64:-0.42952713 65:-0.44271713 66:-0.16200015 67:-0.23621664 68:-0.2927594 69:-0.33361193 70:-0.37701338 71:-0.43295298 72:-0.482114 73:-0.53579626 74:-0.52009352 75:-0.50458797 76:-0.66876818 77:-0.59015937 78:-0.76586667 79:-0.75803006 80:-0.75872128 81:-0.5058111 82:-0.55388531 83:-0.69057109 84:-0.62232731 85:-0.6041814 86:-0.41419316 87:-0.45482488 88:-0.58933829 89:-0.62115265 90:-0.6120971 91:-0.38042908 92:-0.39496864 93:-0.52881921 94:-0.42808965 95:-0.41864534 96:-0.29660844 97:-0.33672929 98:-0.47338484 99:-0.4638246 100:-0.54099755 101:-0.18218881 102:-0.32034063 103:-0.39339595 104:-0.44672203 105:-0.49205538 106:-0.31458511 107:-0.42536027 108:-0.56974334 109:-0.68585009 110:-0.7326282 111:-0.63319432 112:-0.67888781 113:-0.78389867 114:-0.62652035 115:-0.56969327 116:-0.76620172 117:-0.67407013 118:-0.68833027 119:-0.7084279 120:-0.7077297 121:-0.42174214 122:-0.3137836 123:-0.42481936 124:-0.42819695 125:-0.48791926 126:-0.61313933 127:-0.64902152 128:-0.72068671 129:-0.66829501 130:-0.61727285 131:-0.55197055 132:-0.47316307 133:-0.583776 134:-0.59317315 135:-0.68254393 136:-0.51413848 137:-0.46182033 138:-0.6333737 139:-0.63261276 140:-0.61472387 141:-0.68836186 142:-0.63726157 143:-0.87801215 144:-0.67713982 145:-0.59070963 146:0.46890447 147:0.10598777 148:-0.038557718 149:-0.24598552 150:-0.50609771 151:-0.55507295 152:-0.68870649 153:-0.74304583 154:-0.65087658 155:-0.58100543 156:-0.14190354 157:-0.26433185 158:-0.32371212 159:-0.354524 160:-0.37428747 
53.040195945412272 1:-0.39026826 2:-0.41887468 3:-0.52746195 4:-0.64871353 5:-0.6410585 6:-0.19324251 7:-0.16567969 8:-0.16517262 9:-0.25631522 10:-0.31143258 11:-0.48537066 12:-0.55042787 13:-0.64140626 14:-0.56449852 15:-0.48962509 16:-0.47485337 17:-0.47813575 18:-0.5051731 19:-0.53644986 20:-0.5840239 21:-0.17009907 22:-0.39388609 23:-0.59077803 24:-0.57902707 25:-0.53348055 26:-0.38412345 27:-0.47418052 28:-0.57717205 29:-0.61661436 30:-0.6069256 31:-0.61661539 32:-0.60037946 33:-0.73688296 34:-0.72865774 35:-0.67817237 36:-0.99675222 37:-1.0901563 38:-1.1963179 39:-1.0235324 40:-0.83240953 41:0.22292636 42:-0.10943918 43:-0.23582663 44:-0.28994608 45:-0.36541722 46:0.43044553 47:-0.24049192 48:-0.58980329 49:-0.71421116 50:-0.60133349 51:-0.65473364 52:-0.7230559 53:-0.73461014 54:-0.74028177 55:-0.68138478 56:-0.59380169 57:-0.80447863 58:-0.91568006 59:-0.94268975 60:-0.88225896 61:-0.4749195 62:-0.48801516 63:-0.57620884 64:-0.52033394 65:-0.47479129 66:-0.47754091 67:-0.478216 68:-0.53370354 69:-0.51245631 70:-0.47917253 71:-0.18327373 72:-0.38412386 73:-0.51864974 74:-0.56569675 75:-0.53346786 76:-0.135853 77:-0.50879332 78:-0.76199528 79:-0.76850901 80:-0.74737192 81:-0.73356848 82:-0.73760786 83:-0.79376794 84:-0.71596706 85:-0.62108191 86:-0.10880529 87:-0.34003506 88:-0.54083171 89:-0.57947668 90:-0.48960446 91:-0.17029701 92:-0.45777738 93:-0.63294486 94:-0.53491631 95:-0.46595131 96:-0.47452875 97:-0.62910282 98:-0.75404134 99:-0.78267992 100:-0.70290874 101:-0.38590634 102:-0.3603882 103:-0.33102741 104:-0.38532836 105:-0.44686039 106:-0.31267763 107:-0.54610231 108:-0.81866129 109:-0.94216664 110:-0.8944576 111:-0.52293004 112:-0.60365569 113:-0.63181839 114:-0.57890565 115:-0.49979014 116:-0.31608174 117:-0.35948583 118:-0.30936136 119:-0.39095806 120:-0.44521597 121:-0.078780351 122:-0.27180288 123:-0.26860211 124:-0.3285887 125:-0.38129423 126:-0.25861658 127:-0.43772862 128:-0.54366789 129:-0.54988495 130:-0.53400777 131:-0.36303782 132:-0.37310904 133:-0.38799422 134:-0.43968741 135:-0.50183605 136:-0.0055874415 137:-0.43489758 138:-0.51206959 139:-0.53196419 140:-0.53763388 141:-0.47545302 142:-0.41410186 143:-0.46675873 144:-0.44879074 145:-0.45575878 146:0.40116346 147:-0.0035327276 148:0.041724174 149:-0.12943688 150:-0.33052677 151:-0.67836826 152:-0.59726239 153:-0.71281619 154:-0.68372074 155:-0.63236472 156:-0.59494152 157:-0.39128156 158:-0.49752412 159:-0.5793526 160:-0.56843835 
214.02675938061054 1:-0.73228807 2:-0.78872701 3:-0.63075835 4:-0.63732016 5:-0.77874485 6:-0.55452314 7:-0.56402914 8:-0.51076837 9:-0.32062412 10:-0.40456993 11:-0.51171751 12:-0.53565596 13:-0.45241115 14:-0.35313158 15:-0.39940361 16:-0.5493309 17:-0.53056438 18:-0.47382269 19:-0.46150515 20:-0.55894141 21:-0.52230567 22:-0.57927628 23:-0.52948548 24:-0.47060008 25:-0.48966759 26:-0.83660491 27:-0.79717095 28:-0.70341601 29:-0.50679967 30:-0.61611294 31:-0.66675906 32:-0.73766199 33:-0.70396302 34:-0.58627636 35:-0.64514132 36:-1.0388371 37:-1.2721472 38:-1.3299248 39:-1.1284292 40:-1.1590675 41:-0.64168339 42:-0.64454301 43:-0.5852472 44:-0.50382277 45:-0.53532805 46:-0.86804703 47:-0.99500397 48:-0.805131 49:-0.60138283 50:-0.64423764 51:-0.69369219 52:-0.72620992 53:-0.42913596 54:-0.3808042 55:-0.56655909 56:-0.87428385 57:-0.983073 58:-0.89854235 59:-0.68515963 60:-0.73906576 61:-0.57809198 62:-0.65654278 63:-0.58079799 64:-0.46712561 65:-0.4775388 66:-0.55355741 67:-0.56582744 68:-0.48116948 69:-0.41575633 70:-0.43997027 71:-0.62260208 72:-0.63527762 73:-0.56153768 74:-0.50383458 75:-0.5352837 76:-0.87130937 77:-0.9120182 78:-0.76830992 79:-0.63307227 80:-0.68305725 81:-0.73045392 82:-0.72272187 83:-0.58907726 84:-0.56197919 85:-0.60329119 86:-0.63419269 87:-0.68607177 88:-0.63489034 89:-0.46912472 90:-0.53682624 91:-0.69828903 92:-0.76235729 93:-0.6865997 94:-0.39778145 95:-0.42770382 96:-0.71445913 97:-0.78415528 98:-0.76589507 99:-0.69311668 100:-0.67966978 101:-0.60763017 102:-0.51081046 103:-0.27500668 104:-0.27797863 105:-0.45771588 106:-0.66733054 107:-0.72404344 108:-0.73988079 109:-0.66996463 110:-0.74128179 111:-0.66246663 112:-0.69718349 113:-0.61256797 114:-0.37852119 115:-0.43634647 116:-0.66690289 117:-0.55981467 118:-0.38600241 119:-0.28505173 120:-0.4727314 121:-0.45331756 122:-0.40965486 123:-0.30345534 124:-0.21145987 125:-0.33519847 126:-0.67351693 127:-0.64464613 128:-0.54380223 129:-0.44412352 130:-0.52802234 131:-0.66860182 132:-0.54498466 133:-0.40481873 134:-0.33884946 135:-0.53177714 136:-0.93747605 137:-0.98562776 138:-0.81377801 139:-0.56816184 140:-0.62048529 141:-0.65456632 142:-0.68091771 143:-0.54075559 144:-0.35557587 145:-0.45372925 146:-1.0206739 147:-1.0793882 148:-0.94472332 149:-0.82519641 150:-0.88178113 151:-0.69510172 152:-0.81046333 153:-0.76226441 154:-0.53542927 155:-0.55603131 156:-0.55775323 157:-0.60661025 158:-0.48120989 159:-0.33538536 160:-0.38120431 
512 1:-0.41368242 2:0.0026473982 3:-0.081271385 4:-0.29030404 5:-0.44851887 6:-0.2514046 7:-0.066260296 8:-0.020091846 9:-0.1305305 10:-0.26305071 11:-0.21713639 12:-0.021159847 13:-0.082385118 14:-0.10225337 15:-0.2475619 16:3.9118443 17:3.237504 18:2.3407914 19:1.5373386 20:1.254036 21:-0.54875477 22:-0.45527034 23:-0.3785721 24:-0.43263524 25:-0.32817415 26:0.065667627 27:-0.032176445 28:-0.1699268 29:-0.39900707 30:-0.48108018 31:-0.60416956 32:-0.54824559 33:-0.19354558 34:-0.26811609 35:-0.29164213 36:-0.27579842 37:-0.32308346 38:-0.31904154 39:-0.57361489 40:-0.60626698 41:-0.33405403 42:-0.35596228 43:-0.33379024 44:-0.44106759 45:-0.46164556 46:-0.57476952 47:-0.62924954 48:-0.5569319 49:-0.61702236 50:-0.67103648 51:-0.70044595 52:-0.55861392 53:-0.36952648 54:-0.45090897 55:-0.56572117 56:0.76983067 57:0.62422624 58:0.33472916 59:-0.15286263 60:-0.31366417 61:-0.40790998 62:-0.40751741 63:-0.3698659 64:-0.36377363 65:-0.41221208 66:-0.076411921 67:0.02395555 68:-0.089205951 69:-0.098275543 70:-0.18207514 71:0.19468232 72:0.25433292 73:0.0015187539 74:-0.082612335 75:-0.2194537 76:0.27889716 77:-0.027919364 78:-0.25231345 79:-0.38444531 80:-0.47168932 81:-0.52237302 82:-0.37828633 83:-0.46454516 84:-0.38186256 85:-0.36978313 86:0.53191799 87:0.45071742 88:0.44325876 89:0.095146421 90:-0.090568343 91:0.49173954 92:0.52806267 93:0.23832793 94:-0.1380897 95:-0.25872628 96:-0.28328345 97:-0.19946443 98:-0.27058183 99:-0.26512946 100:-0.31639102 101:-0.59049526 102:-0.49373071 103:-0.30421748 104:-0.24395133 105:-0.091101186 106:-0.12685161 107:-0.12931844 108:0.24327252 109:0.56271695 110:0.35260617 111:1.5463623 112:1.6381786 113:1.0929962 114:0.48308814 115:0.25463992 116:-0.18496266 117:-0.22205253 118:-0.29082679 119:-0.44894459 120:-0.5112131 121:-0.45377826 122:-0.38391481 123:-0.26745295 124:-0.19977687 125:-0.24191263 126:0.9510704 127:0.79124632 128:0.56099443 129:0.031512854 130:-0.08412364 131:0.32659627 132:0.23317604 133:0.13035547 134:-0.1010703 135:-0.27882911 136:-0.8379742 137:-0.62314232 138:-0.53073883 139:-0.5402347 140:-0.59675448 141:-0.12698903 142:-0.18690457 143:-0.22580428 144:-0.37666219 145:-0.4431846 146:1.4507015 147:0.92213691 148:0.46831031 149:0.0061694601 150:-0.22348408 151:-0.27342208 152:-0.19084104 153:-0.2474455 154:-0.29015708 155:-0.36147883 156:-0.16848792 157:0.08433701 158:0.089168247 159:-0.011627743 160:-0.16466037 
512 1:-0.44392485 2:-0.29663559 3:-0.23190827 4:0.071749812 5:0.16564688 6:-0.48871649 7:-0.49291961 8:-0.50120754 9:-0.28485796 10:-0.18637446 11:-0.081050249 12:-0.078188543 13:0.051019404 14:0.24659953 15:0.22574993 16:-0.28607672 17:-0.20530649 18:-0.14851328 19:0.053913001 20:0.14622852 21:-0.42176207 22:-0.36455905 23:-0.19032775 24:-0.002900674 25:0.086331011 26:-0.40068587 27:-0.17378857 28:-0.042973333 29:0.11454925 30:0.098798523 31:-0.41708127 32:-0.26076841 33:-0.021955374 34:0.23959712 35:0.21531317 36:-0.44623342 37:-0.077049381 38:0.28764234 39:0.64816335 40:0.72365654 41:0.36436954 42:0.59863398 43:0.92440664 44:1.6343377 45:1.6420953 46:-0.69775858 47:-0.50053951 48:-0.33895438 49:0.0065907239 50:0.027404634 51:-0.46334154 52:-0.35425044 53:-0.16312217 54:0.096452453 55:0.18422919 56:-0.81703901 57:-0.72227092 58:-0.67757917 59:-0.59697465 60:-0.55657436 61:-0.39460967 62:-0.43553877 63:-0.44896819 64:-0.20809958 65:-0.17471067 66:-0.18109128 67:-0.042306239 68:0.045848684 69:0.17852926 70:0.12432171 71:-0.47961743 72:-0.34340774 73:-0.35449269 74:-0.23090245 75:-0.24416575 76:-0.26799766 77:0.16174065 78:0.3220306 79:0.64092533 80:0.62778435 81:0.53678043 82:1.0193693 83:1.5623117 84:2.3065315 85:1.9182177 86:-0.46966936 87:-0.26338045 88:-0.25178034 89:-0.11836064 90:-0.17139762 91:-0.31844845 92:-0.33019413 93:-0.20627951 94:0.050044398 95:0.071106856 96:-0.2791908 97:-0.19106373 98:-0.031868227 99:0.39065394 100:0.46220316 101:-0.59955879 102:-0.51943497 103:-0.42376965 104:-0.28821591 105:-0.21143552 106:-0.38190539 107:0.079849763 108:0.16990757 109:0.40334421 110:0.22845586 111:-0.37743913 112:-0.33202449 113:-0.20573598 114:-0.00026386263 115:0.067428666 116:-0.43203985 117:-0.2790933 118:-0.22741823 119:-0.075576588 120:0.025150205 121:-0.44412997 122:-0.3770843 123:-0.31717105 124:-0.30943624 125:-0.26648416 126:-0.36534976 127:-0.32558724 128:-0.20249659 129:-0.037945824 130:-0.013711517 131:-0.33572897 132:-0.28322538 133:-0.17015013 134:0.061087916 135:0.15719008 136:-0.60014927 137:-0.39465499 138:-0.33234296 139:-0.17383243 140:-0.11151447 141:-0.57803501 142:-0.58206441 143:-0.57044054 144:-0.35696411 145:-0.30246378 146:0.011880307 147:0.088620029 148:0.24791441 149:0.82285628 150:0.94423465 151:-0.61319497 152:-0.53644123 153:-0.4347371 154:-0.29056993 155:-0.29387289 156:0.16706071 157:0.24399522 158:0.32518001 159:0.70778346 160:0.73059708 
512 1:-0.49820542 2:-0.43410585 3:-0.30857377 4:-0.54375221 5:-0.499986 6:-0.49020295 7:-0.48454806 8:-0.44568153 9:-0.39219316 10:-0.27133557 11:1.3439947 12:0.94963581 13:1.1373796 14:1.0213242 15:1.3604838 16:-0.44329457 17:-0.4162214 18:-0.35720577 19:-0.37124647 20:-0.27609295 21:-0.47318114 22:-0.44864735 23:-0.44570327 24:-0.48173503 25:-0.43074424 26:-0.74472884 27:-0.66283409 28:-0.59427936 29:-0.63338405 30:-0.67379836 31:-0.36779544 32:-0.33693926 33:-0.37621305 34:-0.42146764 35:-0.29736354 36:-0.28570056 37:-0.2748099 38:0.024699321 39:-0.059929909 40:0.40010266 41:-0.47429217 42:-0.40192481 43:-0.29275496 44:-0.34415139 45:-0.22481298 46:1.4227748 47:1.0486724 48:1.3288322 49:1.6028629 50:2.246196 51:-0.43940639 52:-0.2759332 53:-0.073135507 54:-0.18394031 55:-0.051061253 56:0.40984825 57:0.32145123 58:0.61220687 59:0.7703608 60:1.3112402 61:-0.32280358 62:-0.35394578 63:-0.27197121 64:-0.32189295 65:-0.30545399 66:-0.39557511 67:-0.34365536 68:-0.27254788 69:-0.26775827 70:-0.21919568 71:-0.57266328 72:-0.55414362 73:-0.5256324 74:-0.50081969 75:-0.50419578 76:-0.48957755 77:-0.32932347 78:-0.15112417 79:-0.22927626 80:-0.12947885 81:0.82031564 82:0.53807733 83:0.59316989 84:0.49698219 85:0.669475 86:0.11602743 87:-0.042994171 88:-0.0021112174 89:-0.0071859346 90:0.17858123 91:-0.39380497 92:-0.41961481 93:-0.3373307 94:-0.2602789 95:-0.080888421 96:-0.50204564 97:-0.50439466 98:-0.47448705 99:-0.47168749 100:-0.32172763 101:-0.57684363 102:-0.51406192 103:-0.47077797 104:-0.51267291 105:-0.46211916 106:0.045266486 107:0.078133011 108:0.26504478 109:0.41504136 110:0.89586139 111:-0.13004592 112:0.25185421 113:0.57965202 114:0.39116343 115:0.47985834 116:0.6385664 117:0.49136728 118:0.65414578 119:0.89304877 120:1.5915966 121:-0.025153743 122:-0.13745123 123:-0.089485168 124:-0.17029632 125:-0.11813775 126:0.33505806 127:0.17467117 128:0.32440654 129:0.29937843 130:0.56694942 131:-0.22368973 132:-0.1382612 133:-0.02600046 134:-0.039213487 135:0.14939404 136:1.1389119 137:0.8747068 138:1.2000623 139:1.2637868 140:1.7780183 141:0.75962992 142:0.32248074 143:0.39048323 144:0.51808774 145:0.92044886 146:0.38356791 147:0.17217378 148:0.40648631 149:0.3888195 150:0.85795662 151:0.25886851 152:-0.054296054 153:-0.079537696 154:0.0501492 155:0.35285905 156:-0.29891674 157:-0.43030816 158:-0.40331964 159:-0.37573911 160:-0.25878015 
232.93227620542456 1:-0.058788882 2:-0.25931786 3:-0.33969596 4:-0.18748809 5:-0.051579595 6:-0.35636128 7:-0.33147659 8:-0.1970188 9:-0.051738972 10:0.00127472 11:0.11109528 12:-0.11437342 13:-0.11091535 14:-0.14715758 15:-0.096668378 16:-0.24539398 17:-0.072758912 18:0.11590111 19:0.32213094 20:0.57771405 21:3.8371929 22:2.8347392 23:3.5187859 24:3.2699251 25:2.8948358 26:1.1283887 27:0.48774876 28:0.57694478 29:0.46881512 30:0.47057242 31:0.37312487 32:-0.034360582 33:-0.11619477 34:-0.066357491 35:-0.022931052 36:0.12131211 37:0.58976527 38:1.9119721 39:2.2300713 40:2.5718076 41:0.52614165 42:0.2806806 43:0.84290559 44:0.99861258 45:1.0757712 46:1.9073744 47:1.4699584 48:1.8212628 49:1.5965299 50:1.3839015 51:1.908035 52:1.1732084 53:1.3395619 54:1.2521764 55:1.2433444 56:1.33537 57:0.79798639 58:1.1927122 59:1.2795106 60:1.2968597 61:-0.30865106 62:-0.28234929 63:-0.31207177 64:-0.32807722 65:-0.3150601 66:-0.31479111 67:-0.41421841 68:-0.43019913 69:-0.35589199 70:-0.3016729 71:-0.35207444 72:-0.28898027 73:-0.15133603 74:-0.086273338 75:-0.055604874 76:2.540844 77:1.2916225 78:1.5051211 79:1.5018889 80:1.7098279 81:0.40924451 82:-0.069244971 83:-0.40334019 84:-0.28805165 85:-0.21602844 86:-0.23919977 87:-0.13463991 88:-0.018179975 89:-0.04069691 90:-0.038009198 91:-0.20490553 92:-0.41847156 93:-0.51758403 94:-0.46792974 95:-0.36466904 96:1.6465136 97:0.99571377 98:1.1736345 99:1.2654881 100:1.1910299 101:0.26185071 102:-0.16067209 103:-0.26355022 104:-0.11669887 105:0.099871708 106:-0.084691739 107:-0.21675624 108:-0.29616204 109:-0.21006809 110:-0.1736838 111:2.1344802 112:1.6102621 113:2.0384093 114:1.7392838 115:1.5459053 116:0.24708274 117:0.080803356 118:0.16621895 119:0.18800223 120:0.33030221 121:-0.38039203 122:-0.27995039 123:-0.28740773 124:-0.31796171 125:-0.34580715 126:-0.047643757 127:0.11179117 128:0.30823844 129:0.25041906 130:0.15445927 131:0.20121577 132:-0.039503373 133:-0.04874221 134:-0.064791249 135:-0.02597767 136:-0.63398566 137:-0.56408249 138:-0.56090856 139:-0.52812704 140:-0.47929579 141:2.2878058 142:1.5864175 143:1.9003661 144:1.408428 145:1.1403203 146:0.61820032 147:0.72181477 148:0.83222199 149:0.91632855 150:0.93700343 151:0.55695118 152:0.13982394 153:0.071364429 154:0.051275837 155:0.043196195 156:-0.094657497 157:-0.29965784 158:-0.39035353 159:-0.33260788 160:-0.26929559 
512 1:-0.155371 2:-0.32697982 3:-0.61946506 4:-0.38637261 5:-0.37409676 6:-0.37626478 7:-0.39620827 8:-0.5283295 9:-0.38656466 10:-0.38347051 11:0.069421405 12:-0.063515215 13:-0.24144762 14:-0.3108066 15:-0.32242582 16:-0.27902617 17:-0.26364224 18:-0.33328271 19:-0.40443072 20:-0.48786839 21:3.435659 22:2.5207346 23:2.024132 24:1.1893894 25:0.75280887 26:1.029251 27:0.56270809 28:0.31698922 29:0.048197175 30:-0.081882762 31:0.2374311 32:-0.14886397 33:-0.44933186 34:-0.53042401 35:-0.52794694 36:0.12626125 37:0.43027343 38:0.30623071 39:0.44635877 40:0.21137388 41:0.41886134 42:0.15420165 43:0.015814821 44:-0.13678344 45:-0.17621408 46:1.7452283 47:1.517289 48:1.2340106 49:0.70659086 50:0.32809893 51:1.7434201 52:1.3105873 53:0.92630371 54:0.54416082 55:0.28380324 56:1.1966374 57:0.7469471 58:0.54102231 59:0.3044585 60:0.10635779 61:-0.3303173 62:-0.31016557 63:-0.3112563 64:-0.34867382 65:-0.3720126 66:-0.34144927 67:-0.43567265 68:-0.46166786 69:-0.38726938 70:-0.36972764 71:-0.32884061 72:-0.25794275 73:-0.32585976 74:-0.3414218 75:-0.37406438 76:2.3479105 77:1.3432656 78:0.99177171 79:0.64392671 80:0.44388381 81:0.26108143 82:-0.21083631 83:-0.54665448 84:-0.42741446 85:-0.39106847 86:-0.21137933 87:-0.12321701 88:-0.19922759 89:-0.27529093 90:-0.33913697 91:-0.26549641 92:-0.42408769 93:-0.53083067 94:-0.51640275 95:-0.45078428 96:1.4385275 97:0.93808085 98:0.70029187 99:0.41822873 100:0.23344845 101:0.14402475 102:-0.30003554 103:-0.49319389 104:-0.48466332 105:-0.45197122 106:-0.13093139 107:-0.19643001 108:-0.35016817 109:-0.37405453 110:-0.43361558 111:1.9588956 112:1.6581447 113:1.4006514 114:0.8328922 115:0.51230462 116:0.21438027 117:0.09845779 118:-0.035262731 119:-0.17243088 120:-0.20866206 121:-0.39593564 122:-0.21669072 123:-0.28406553 124:-0.34664483 125:-0.42558835 126:0.016947019 127:0.22613148 128:0.15813442 129:0.10163088 130:-0.049754056 131:0.13810534 132:0.058006171 133:-0.11447228 134:-0.22470072 135:-0.30953484 136:-0.64819831 137:-0.40754015 138:-0.55358439 139:-0.60915059 140:-0.59217363 141:2.0500275 142:1.6857989 143:1.4170769 144:0.74238622 145:0.38255748 146:0.68714896 147:0.84700316 148:0.64417874 149:0.35266281 150:0.06194218 151:0.43585305 152:0.13988138 153:-0.034444854 154:-0.18745301 155:-0.24723759 156:-0.14260521 157:-0.29219658 158:-0.37596579 159:-0.40532531 160:-0.4008864 
512 1:0.37246601 2:0.42788595 3:-0.00058309659 4:-0.18906519 5:-0.24745535 6:-0.38149514 7:-0.38339684 8:-0.33539559 9:-0.22653035 10:-0.20894442 11:-0.16116253 12:-0.13302981 13:0.013323604 14:0.06277321 15:0.045967828 16:-0.27250506 17:-0.26297842 18:-0.16429808 19:-0.11073369 20:-0.043123984 21:-0.59266683 22:-0.66299039 23:-0.63542325 24:-0.49653593 25:-0.47497628 26:-0.37525402 27:-0.35847416 28:-0.34118428 29:-0.24213466 30:-0.24747409 31:-0.43411058 32:-0.54171107 33:-0.63233503 34:-0.5720434 35:-0.56309147 36:-0.12088718 37:-0.21146376 38:-0.47365927 39:-0.54338283 40:-0.30768115 41:-0.21917398 42:-0.14924788 43:-0.0048452881 44:0.049564996 45:0.13705518 46:-0.044866491 47:0.17666597 48:0.76018828 49:0.8343806 50:0.83934369 51:-0.20783754 52:-0.2266486 53:0.031522339 54:0.24963459 55:0.30647974 56:-0.68384698 57:-0.62199717 58:-0.36347753 59:-0.16732693 60:0.090886447 61:-0.25450034 62:-0.2303792 63:-0.12617001 64:-0.0081166848 65:0.017031033 66:-0.24112618 67:-0.14499384 68:-0.039835807 69:-0.13515702 70:-0.11684912 71:-0.25864977 72:-0.18107522 73:-0.068063184 74:-0.016667567 75:-0.038421673 76:-0.0086591825 77:-0.084287053 78:0.22031987 79:0.41053385 80:0.57552987 81:-0.50792802 82:-0.47076483 83:-0.38446452 84:-0.29159138 85:-0.26760753 86:-0.4221207 87:-0.48448287 88:-0.6079759 89:-0.45399162 90:-0.37396298 91:-0.3419892 92:-0.30248696 93:-0.20830842 94:-0.06756238 95:-0.078222212 96:-0.15158732 97:-0.093377628 98:-0.013755192 99:0.0032467913 100:0.18754198 101:-0.067525628 102:-0.13076629 103:-0.18657072 104:-0.16352847 105:-0.058101729 106:0.021735428 107:0.28132081 108:0.80543744 109:1.3734407 110:1.5449274 111:0.22116558 112:0.56197933 113:1.0542282 114:1.01583 115:0.89693179 116:0.15396813 117:0.30872178 118:0.42323392 119:0.59962712 120:0.6620308 121:-0.32239105 122:-0.34437215 123:-0.24922999 124:-0.096801633 125:0.084861805 126:-0.46688889 127:-0.46033997 128:-0.41489811 129:-0.18729797 130:-0.085005405 131:-0.17604225 132:-0.19908377 133:-0.2599274 134:-0.18773124 135:-0.1188087 136:0.19405804 137:0.31459919 138:0.65892402 139:0.64998248 140:0.73793982 141:0.30816257 142:0.62945393 143:1.3599853 144:1.1985205 145:1.0745506 146:0.24639846 147:0.17389541 148:0.10993526 149:0.28017526 150:0.47900652 151:-0.22483293 152:-0.14495435 153:0.028434372 154:0.10712644 155:0.10883611 156:0.056421813 157:-0.0056091383 158:-0.069133059 159:-0.0079745205 160:0.048742075 
512 1:-0.42896482 2:-0.36503491 3:-0.27029108 4:-0.12285028 5:0.056137044 6:-0.49223298 7:-0.52894953 8:-0.51488942 9:-0.33538769 10:-0.22334458 11:-0.082705775 12:-0.11036378 13:0.0092811325 14:0.11793944 15:0.16984799 16:-0.2812646 17:-0.23998448 18:-0.17057328 19:-0.070331434 20:0.055025308 21:-0.43592047 22:-0.46362487 23:-0.42748514 24:-0.28811293 25:-0.21651149 26:-0.39884061 27:-0.28789901 28:-0.16244298 29:-0.17029988 30:-0.26229406 31:-0.4272198 32:-0.37316768 33:-0.25951184 34:-0.27283046 35:-0.29095437 36:-0.44428172 37:-0.27858684 38:-0.13949968 39:-0.15345755 40:-0.14018008 41:0.30750417 42:0.44999723 43:0.88407676 44:1.3567202 45:1.5392603 46:-0.74796025 47:-0.61509419 48:-0.5299077 49:-0.31646068 50:-0.26543647 51:-0.47238417 52:-0.42675432 53:-0.32551649 54:-0.2835149 55:-0.18554464 56:-0.80663592 57:-0.81565443 58:-0.74269357 59:-0.75301503 60:-0.76117148 61:-0.38590729 62:-0.43072947 63:-0.4605033 64:-0.28079551 65:-0.21613225 66:-0.16734114 67:-0.10523833 68:0.0023709296 69:0.023253304 70:0.0019611122 71:-0.49655783 72:-0.41184861 73:-0.43620869 74:-0.37272881 75:-0.38850847 76:-0.33163898 77:-0.033344263 78:0.14426714 79:0.18879441 80:0.033280154 81:0.45170666 82:0.81014691 83:1.429329 84:1.8121044 85:1.7295242 86:-0.47260683 87:-0.39049166 88:-0.31700692 89:-0.28693478 90:-0.38460289 91:-0.31198892 92:-0.33172227 93:-0.21332521 94:-0.019203376 95:0.050552639 96:-0.28386007 97:-0.24692285 98:-0.067861675 99:0.18510406 100:0.37031856 101:-0.60863991 102:-0.58931882 103:-0.53660537 104:-0.53449914 105:-0.48883351 106:-0.39942267 107:-0.12830756 108:0.048295352 109:0.035506771 110:-0.26979422 111:-0.38729147 112:-0.3857878 113:-0.29459998 114:-0.099763975 115:0.021254065 116:-0.41895712 117:-0.33742441 118:-0.23121794 119:-0.18523563 120:-0.077635251 121:-0.43743705 122:-0.39559277 123:-0.33943191 124:-0.33139197 125:-0.29979341 126:-0.37154136 127:-0.38180513 128:-0.28267581 129:-0.17218736 130:-0.10136942 131:-0.32908315 132:-0.32877045 133:-0.19231278 134:-0.061364579 135:0.083033871 136:-0.58604846 137:-0.47462344 138:-0.34080528 139:-0.2513782 140:-0.16087352 141:-0.58787357 142:-0.58627032 143:-0.62899451 144:-0.43116644 145:-0.33078027 146:0.044394692 147:0.0046049634 148:0.22429362 149:0.51724659 150:0.77554411 151:-0.67609418 152:-0.67853188 153:-0.64301502 154:-0.5447814 155:-0.4899873 156:0.17479426 157:0.19307547 158:0.33500693 159:0.50939198 160:0.62647714 
134.30574986458163 1:-0.44559493 2:-0.37185054 3:-0.26769542 4:-0.37696518 5:-0.27330205 6:-0.10596682 7:0.061150332 8:0.18935748 9:0.10142945 10:-0.021200656 11:0.91437511 12:1.2722603 13:1.652701 14:1.3115042 15:0.93417038 16:0.20219479 17:0.30232091 18:0.40894571 19:0.64606619 20:0.72810065 21:0.070661895 22:0.39595552 23:0.59528698 24:0.38465299 25:0.11503221 26:1.0038459 27:1.0540881 28:1.3699603 29:1.4186351 30:1.2051304 31:-0.30779473 32:-0.27983348 33:-0.20915175 34:-0.11174107 35:-0.08660782 36:-0.1827896 37:0.046090888 38:0.33862241 39:0.38536357 40:0.41293154 41:-0.063311251 42:0.10145541 43:0.2257015 44:0.25852913 45:0.17005095 46:0.58235466 47:0.97600832 48:1.5845812 49:1.7539521 50:1.4130573 51:1.506747 52:1.9999094 53:2.4270525 54:2.5845194 55:2.111287 56:0.16283459 57:0.45574771 58:0.75575832 59:0.93457476 60:0.71348632 61:0.27748788 62:0.41417427 63:0.68484327 64:0.58382552 65:0.50863702 66:0.1987371 67:0.3087226 68:0.45425072 69:0.4410549 70:0.30809186 71:0.10867107 72:0.24667523 73:0.40006348 74:0.46153165 75:0.39156541 76:2.0670678 77:2.204604 78:2.6195082 79:2.7796404 80:2.472158 81:0.054851166 82:0.37339083 83:0.64961732 84:0.52926111 85:0.31710377 86:-0.35945519 87:-0.36921802 88:-0.32026129 89:-0.14194268 90:-0.011243445 91:0.31051609 92:0.56958451 93:0.88015741 94:0.7818382 95:0.61346731 96:0.79468418 97:1.6047687 98:2.2608688 99:2.1596158 100:1.4064914 101:1.0813195 102:1.637601 103:1.8020329 104:1.4701086 105:1.0082645 106:0.18266715 107:0.42893924 108:0.81482968 109:1.1712528 110:1.0583513 111:-0.63568664 112:-0.66138042 113:-0.67875073 114:-0.55881366 115:-0.51500587 116:1.3061003 117:1.6065816 118:1.8478278 119:2.200878 120:2.1029655 121:-0.024798061 122:0.077065077 123:0.13321222 124:0.047821873 125:-0.020354766 126:0.15135011 127:0.27804207 128:0.55463992 129:0.56737607 130:0.43512924 131:0.8813125 132:1.0817682 133:1.2397191 134:1.4788427 135:1.3823931 136:-0.38493384 137:-0.33432066 138:-0.20729833 139:-0.048753315 140:-0.0073906229 141:0.13605511 142:0.35778225 143:0.64513503 144:0.67491826 145:0.53679469 146:0.63127747 147:0.7216251 148:0.87262068 149:1.2045667 150:1.3000139 151:0.40530526 152:0.74847223 153:1.1358203 154:1.1852707 155:0.96231794 156:-0.47247326 157:-0.37701098 158:-0.29637903 159:-0.32023229 160:-0.38074742 
247.24885356753225 1:-0.72926621 2:-0.7446671 3:-0.90616267 4:-0.91235215 5:-0.79359567 6:-0.52485025 7:-0.51312309 8:-0.53232438 9:-0.44275097 10:-0.38371796 11:-0.51656934 12:-0.52903504 13:-0.58972022 14:-0.54598675 15:-0.48667235 16:-0.3071662 17:-0.33629819 18:-0.33093275 19:-0.33981129 20:-0.39048691 21:-0.50001427 22:-0.51064996 23:-0.60336057 24:-0.55972316 25:-0.51949621 26:-0.14916212 27:-0.31284575 28:-0.44870892 29:-0.54250633 30:-0.56767129 31:0.015563851 32:-0.17628584 33:-0.27193644 34:-0.34306867 35:-0.45653762 36:-0.84713126 37:-0.8935688 38:-1.0715582 39:-1.0234633 40:-0.90854292 41:-0.52870641 42:-0.5344095 43:-0.58372642 44:-0.50776802 45:-0.45743798 46:-0.51235849 47:-0.42386631 48:-0.45912782 49:-0.32118063 50:-0.37494776 51:-0.84154917 52:-0.65722611 53:-0.74955946 54:-0.77753724 55:-0.7135676 56:-0.9428646 57:-0.74672753 58:-0.9105664 59:-0.88374981 60:-0.8155974 61:0.013565143 62:0.086872917 63:0.036860372 64:0.12578711 65:0.0093171937 66:-0.37372232 67:-0.35354995 68:-0.37720532 69:-0.2850243 70:-0.22979395 71:-0.24120966 72:-0.22556075 73:-0.20981587 74:-0.14453691 75:-0.18392403 76:-0.88975238 77:-0.59279618 78:-0.70880879 79:-0.74867998 80:-0.75053233 81:-0.52130163 82:-0.54329582 83:-0.5863884 84:-0.52805682 85:-0.49530489 86:-0.50153529 87:-0.44191246 88:-0.41118145 89:-0.30238338 90:-0.2842579 91:-0.44581372 92:-0.40225402 93:-0.41520751 94:-0.26263732 95:-0.23600113 96:-0.60789168 97:-0.61299306 98:-0.6638328 99:-0.72527635 100:-0.69828647 101:-0.30092691 102:-0.3072085 103:-0.27340109 104:-0.24710319 105:-0.27952629 106:-0.51240352 107:-0.54788481 108:-0.54652036 109:-0.65165897 110:-0.60507365 111:0.079029252 112:0.079137809 113:0.092965235 114:0.19228298 115:0.067896249 116:-0.22742508 117:-0.26210611 118:-0.28564375 119:-0.24390639 120:-0.28772404 121:-0.44151987 122:-0.33493237 123:-0.24380215 124:-0.30655761 125:-0.30340886 126:-0.5696913 127:-0.42306097 128:-0.44936305 129:-0.37129551 130:-0.37625099 131:-0.76087021 132:-0.61078511 133:-0.58505845 134:-0.6585117 135:-0.69317759 136:-0.30851313 137:-0.37221693 138:-0.3260371 139:-0.24795042 140:-0.27672843 141:-0.013963203 142:-0.11387065 143:-0.10537142 144:-0.056107705 145:-0.15729864 146:-0.98494635 147:-0.68355475 148:-0.83118748 149:-0.94712199 150:-0.91401992 151:-0.5354726 152:-0.50357051 153:-0.63993026 154:-0.59390328 155:-0.53828707 156:-0.27966772 157:-0.28468029 158:-0.35449697 159:-0.36084317 160:-0.3022453 
512 1:-0.67371811 2:-0.65064084 3:-0.3661618 4:0.1068916 5:0.089115021 6:-0.28022142 7:-0.37893501 8:-0.2946319 9:-0.15255342 10:-0.1667828 11:-0.45158121 12:-0.47091586 13:-0.39399492 14:-0.21897011 15:-0.24325567 16:-0.38926415 17:-0.33420537 18:-0.27789759 19:-0.1706347 20:-0.20137209 21:-0.52136596 22:-0.47904382 23:-0.41333481 24:-0.23663949 25:-0.15735126 26:-0.51609593 27:-0.58129799 28:-0.52268233 29:-0.51380029 30:-0.51301216 31:-0.51806805 32:-0.52847409 33:-0.43221061 34:-0.29797573 35:-0.32128319 36:-0.120779 37:-0.18992272 38:-0.23668262 39:-0.40755578 40:-0.32629934 41:-0.50052955 42:-0.5746049 43:-0.52489269 44:-0.37321683 45:-0.35418022 46:-0.68015117 47:-0.75195294 48:-0.6398825 49:-0.62260456 50:-0.6151132 51:-0.2333903 52:-0.49918548 53:-0.48922091 54:-0.46721661 55:-0.48625954 56:-0.73788994 57:-0.87090282 58:-0.8201164 59:-0.75300121 60:-0.70554521 61:-0.55475233 62:-0.60208753 63:-0.61866914 64:-0.50011619 65:-0.46274241 66:-0.25217223 67:-0.33442636 68:-0.36542577 69:-0.34578589 70:-0.33013052 71:-0.56668874 72:-0.543449 73:-0.58560962 74:-0.52493876 75:-0.50702323 76:-0.12808421 77:-0.38519621 78:-0.50054348 79:-0.51652242 80:-0.49704925 81:-0.59330258 82:-0.62943678 83:-0.65046279 84:-0.56875349 85:-0.50305909 86:-0.54139975 87:-0.6293184 88:-0.67537643 89:-0.59666897 90:-0.5046394 91:-0.63292845 92:-0.6739724 93:-0.6042349 94:-0.51764812 95:-0.47019993 96:-0.52615763 97:-0.62422234 98:-0.64647131 99:-0.63826358 100:-0.55436554 101:-0.46854164 102:-0.49549008 103:-0.25576848 104:-0.29484526 105:-0.15380567 106:-0.57642941 107:-0.54030481 108:-0.56400236 109:-0.41123226 110:-0.0077460199 111:-0.4048319 112:-0.53301196 113:-0.54068811 114:-0.50445232 115:-0.43778576 116:-0.24879935 117:-0.37299535 118:-0.3926485 119:-0.40312474 120:-0.3985641 121:-0.037807444 122:-0.22025555 123:-0.24467806 124:-0.22864335 125:-0.18737025 126:-0.62646018 127:-0.63065102 128:-0.5895644 129:-0.57095277 130:-0.50403697 131:-0.27025946 132:-0.41061677 133:-0.3919856 134:-0.41482243 135:-0.45426555 136:-0.82445215 137:-0.82962794 138:-0.77731591 139:-0.64132416 140:-0.61622714 141:-0.54801426 142:-0.59338684 143:-0.55672229 144:-0.50534357 145:-0.48368039 146:0.0056892505 147:-0.35647761 148:-0.37650733 149:-0.52750739 150:-0.53524092 151:-0.44696984 152:-0.51446261 153:-0.53230579 154:-0.51424172 155:-0.48881044 156:0.18012664 157:-0.056735224 158:-0.19516518 159:-0.31621063 160:-0.29520339 
512 1:-0.51601022 2:-0.67627038 3:-0.61604163 4:-0.32832034 5:0.14104928 6:-0.5568549 7:-0.60516513 8:-0.57887968 9:-0.38920684 10:-0.23663531 11:-0.49168172 12:-0.5197374 13:-0.47629 14:-0.29815683 15:-0.16631702 16:-0.35475529 17:-0.26023172 18:-0.13983436 19:0.11655838 20:0.5126669 21:-0.50995974 22:-0.32589102 23:0.072845063 24:0.49970889 25:0.62009371 26:-0.53776118 27:-0.60879165 28:-0.6413914 29:-0.55330073 30:-0.32203809 31:-0.50450284 32:-0.38107208 33:-0.20701724 34:0.055260121 35:0.43665076 36:-0.26262177 37:0.0038293847 38:0.9855654 39:2.2074636 40:3.1935012 41:-0.48419699 42:-0.44837232 43:-0.2052691 44:0.15953263 45:0.35778579 46:-0.37209075 47:-0.46352022 48:-0.53465474 49:-0.37697701 50:-0.0056542739 51:0.18450081 52:0.014848177 53:-0.0072695294 54:0.21756424 55:0.71575198 56:-0.35256227 57:-0.33712655 58:-0.24927243 59:0.161084 60:0.46086743 61:-0.43071859 62:-0.47324793 63:-0.35427428 64:-0.20165397 65:-0.039863832 66:-0.5083572 67:-0.49486177 68:-0.37335638 69:-0.2022909 70:-0.051398236 71:-0.33923823 72:-0.35046148 73:-0.36662735 74:-0.25518486 75:-0.14057293 76:-0.38141872 77:-0.20938625 78:0.13132 79:0.60086489 80:1.4466129 81:0.12388288 82:0.061648638 83:-0.035513278 84:-0.02716848 85:0.14443912 86:0.21882566 87:0.3374344 88:0.40539406 89:0.58938652 90:0.8166833 91:-0.51193428 92:-0.54236594 93:-0.54555151 94:-0.36943244 95:-0.20926347 96:-0.54730317 97:-0.5639401 98:-0.56475768 99:-0.38783923 100:-0.23734846 101:-0.417723 102:-0.37028271 103:-0.14000227 104:-0.048005004 105:0.20874912 106:-0.54013352 107:-0.43503916 108:0.00033784223 109:0.63603089 110:1.1720463 111:-0.53614515 112:-0.57162654 113:-0.61975658 114:-0.46656537 115:-0.29080133 116:-0.43929921 117:-0.46502209 118:-0.47932284 119:-0.4617391 120:-0.2267578 121:-0.52066962 122:-0.483567 123:-0.37359194 124:-0.2692928 125:-0.14171269 126:-0.53609778 127:-0.40382912 128:-0.19052127 129:0.098805098 130:0.38796313 131:-0.56345919 132:-0.45316247 133:-0.31574018 134:-0.13203235 135:0.17864492 136:0.13647067 137:0.4005994 138:0.69399922 139:1.1244587 140:1.5991384 141:-0.61159826 142:-0.57075359 143:-0.40384523 144:-0.19957403 145:0.076660121 146:-0.44121991 147:-0.38107585 148:-0.25157728 149:0.21392845 150:0.84593744 151:-0.59382902 152:-0.57819854 153:-0.52195075 154:-0.31835334 155:-0.056606661 156:-0.5115583 157:-0.43185011 158:-0.27889457 159:-0.067092335 160:0.19554148 
512 1:-0.78596951 2:-0.82109143 3:-0.85594051 4:-0.92884768 5:-0.95472355 6:-0.60273521 7:-0.60500838 8:-0.55578046 9:-0.50013969 10:-0.53529135 11:-0.55351857 12:-0.54855982 13:-0.49369275 14:-0.45260903 15:-0.50564123 16:-0.54138295 17:-0.47075308 18:-0.44648341 19:-0.50379692 20:-0.63330517 21:-0.60815606 22:-0.61115711 23:-0.65866802 24:-0.62551649 25:-0.62162111 26:-0.85980064 27:-0.78782115 28:-0.68567197 29:-0.69002933 30:-0.72841769 31:-0.7088822 32:-0.68129761 33:-0.6701338 34:-0.69394046 35:-0.71073486 36:-1.0067099 37:-1.0389338 38:-1.0585805 39:-1.0809427 40:-1.0320601 41:-0.65364708 42:-0.5800107 43:-0.53018404 44:-0.57691362 45:-0.58085668 46:-0.99559378 47:-0.94319039 48:-0.85485707 49:-0.88451811 50:-0.84434444 51:-0.75142814 52:-0.56620509 53:-0.3738615 54:-0.62322533 55:-0.71157395 56:-0.92560864 57:-0.80008445 58:-0.60584437 59:-0.79670503 60:-0.80624065 61:-0.59630777 62:-0.40839603 63:-0.38111239 64:-0.48289065 65:-0.48500804 66:-0.58259003 67:-0.49345232 68:-0.46135447 69:-0.46825882 70:-0.44492396 71:-0.63043355 72:-0.54578452 73:-0.51690854 74:-0.57782038 75:-0.5664767 76:-0.91096928 77:-0.73659648 78:-0.63757869 79:-0.76123565 80:-0.81497855 81:-0.76949323 82:-0.75746149 83:-0.70047085 84:-0.68557751 85:-0.67561534 86:-0.63960509 87:-0.64526859 88:-0.63114968 89:-0.66626826 90:-0.63590101 91:-0.66714767 92:-0.65610605 93:-0.51309274 94:-0.47308111 95:-0.50661612 96:-0.66304238 97:-0.63663474 98:-0.51749103 99:-0.6548794 100:-0.71891494 101:-0.72811417 102:-0.66208771 103:-0.53439351 104:-0.56414371 105:-0.63996163 106:-0.7071287 107:-0.68520662 108:-0.72009478 109:-0.88005533 110:-0.95890513 111:-0.66161502 112:-0.6463639 113:-0.54976777 114:-0.55504289 115:-0.55624719 116:-0.75679939 117:-0.69449475 118:-0.5924443 119:-0.62966053 120:-0.68662662 121:-0.51008876 122:-0.41807289 123:-0.36989074 124:-0.4023278 125:-0.51750415 126:-0.703863 127:-0.63695122 128:-0.63682994 129:-0.58043289 130:-0.59284267 131:-0.76004114 132:-0.61215955 133:-0.54753546 134:-0.59703512 135:-0.69704851 136:-0.95950952 137:-0.91530728 138:-0.78094997 139:-0.74126711 140:-0.73678428 141:-0.6696335 142:-0.61433787 143:-0.57461298 144:-0.5253704 145:-0.5584455 146:-0.9997863 147:-0.807094 148:-0.78469109 149:-0.88550002 150:-0.94181185 151:-0.71437755 152:-0.64437891 153:-0.59521739 154:-0.63499949 155:-0.65226915 156:-0.62403596 157:-0.45278958 158:-0.3983962 159:-0.53842725 160:-0.57241071 
512 1:-0.2978749 2:-0.24665589 3:-0.35714731 4:-0.57413652 5:-0.54836159 6:-0.10437531 7:0.010192194 8:-0.0016381143 9:-0.16318468 10:-0.21547472 11:-0.48194003 12:-0.5085361 13:-0.59673225 14:-0.50827976 15:-0.41980322 16:-0.46037864 17:-0.46506612 18:-0.44848906 19:-0.4642438 20:-0.46168303 21:-0.2122281 22:-0.38418103 23:-0.47621692 24:-0.41042613 25:-0.31239627 26:-0.33642622 27:-0.43430425 28:-0.5131042 29:-0.58315948 30:-0.57891918 31:-0.60929833 32:-0.62646284 33:-0.64965086 34:-0.63350417 35:-0.51596969 36:-1.0200562 37:-1.0908962 38:-1.130865 39:-1.0480751 40:-0.825345 41:0.12642631 42:-0.045282042 43:-0.094332709 44:-0.21000015 45:-0.27354192 46:0.32124055 47:-0.29568478 48:-0.54182053 49:-0.56879904 50:-0.53126736 51:-0.62102809 52:-0.62997469 53:-0.66545492 54:-0.69330461 55:-0.61922667 56:-0.66636553 57:-0.78528333 58:-0.86381937 59:-0.91212463 60:-0.8295573 61:-0.46898329 62:-0.43269659 63:-0.54584436 64:-0.50525213 65:-0.46264593 66:-0.49114156 67:-0.45863086 68:-0.52384562 69:-0.50767651 70:-0.47147439 71:-0.25378726 72:-0.40334791 73:-0.49420608 74:-0.53168275 75:-0.51155042 76:-0.24312631 77:-0.50097314 78:-0.72130402 79:-0.740902 80:-0.7050268 81:-0.71309485 82:-0.68482273 83:-0.76514237 84:-0.68137856 85:-0.58530993 86:-0.14316401 87:-0.33043429 88:-0.50310197 89:-0.51544115 90:-0.45036568 91:-0.21021476 92:-0.47044022 93:-0.61132423 94:-0.52244157 95:-0.4484937 96:-0.48183328 97:-0.61080914 98:-0.747667 99:-0.72800222 100:-0.63222383 101:-0.31684098 102:-0.19976008 103:-0.23137208 104:-0.33103661 105:-0.40638799 106:-0.35685859 107:-0.57068323 108:-0.77945214 109:-0.93123746 110:-0.85775738 111:-0.51580437 112:-0.54627957 113:-0.56548162 114:-0.53873181 115:-0.4633956 116:-0.30599876 117:-0.24573277 118:-0.19737765 119:-0.32634175 120:-0.37104492 121:-0.1377815 122:-0.23276925 123:-0.21268788 124:-0.26370918 125:-0.3180995 126:-0.26835678 127:-0.42006108 128:-0.47819599 129:-0.4973697 130:-0.48365298 131:-0.30944297 132:-0.30419949 133:-0.30711053 134:-0.39534135 135:-0.44408827 136:-0.13654496 137:-0.35645421 138:-0.38435351 139:-0.44589903 140:-0.45662395 141:-0.42182788 142:-0.33332771 143:-0.35830231 144:-0.40079943 145:-0.42365775 146:0.35625334 147:0.32425355 148:0.31128136 149:0.10762207 150:-0.094955745 151:-0.65870261 152:-0.61431272 153:-0.6523828 154:-0.67406005 155:-0.6208971 156:-0.5720156 157:-0.4209593 158:-0.43774172 159:-0.57193361 160:-0.54162335 
